{"learner":{"attributes":{"best_iteration":"99","best_ntree_limit":"100","scikit_learn":"{\"use_label_encoder\": false, \"n_estimators\": 100, \"objective\": \"multi:softprob\", \"max_depth\": 6, \"max_leaves\": null, \"max_bin\": null, \"grow_policy\": null, \"learning_rate\": 0.3, \"verbosity\": null, \"booster\": null, \"tree_method\": null, \"gamma\": null, \"min_child_weight\": null, \"max_delta_step\": null, \"subsample\": null, \"sampling_method\": null, \"colsample_bytree\": null, \"colsample_bylevel\": null, \"colsample_bynode\": null, \"reg_alpha\": null, \"reg_lambda\": null, \"scale_pos_weight\": null, \"base_score\": null, \"missing\": NaN, \"num_parallel_tree\": null, \"random_state\": 42, \"n_jobs\": null, \"monotone_constraints\": null, \"interaction_constraints\": null, \"importance_type\": null, \"gpu_id\": null, \"validate_parameters\": null, \"predictor\": null, \"enable_categorical\": false, \"max_cat_to_onehot\": null, \"eval_metric\": null, \"early_stopping_rounds\": null, \"callbacks\": null, \"classes_\": [0, 1, 2], \"n_classes_\": 3, \"_estimator_type\": \"classifier\"}"},"feature_names":["Total_EMI_per_month","Num_Bank_Accounts","Num_of_Delayed_Payment","Delay_from_due_date","Changed_Credit_Limit","Num_Credit_Card","Outstanding_Debt","Interest_Rate","Credit_Mix"],"feature_types":["float","float","float","float","float","float","float","float","float"],"gradient_booster":{"model":{"gbtree_model_param":{"num_parallel_tree":"1","num_trees":"300","size_leaf_vector":"0"},"tree_info":[0,1,2,0,1,2,0,1,2,0,1,2,0,1,2,0,1,2,0,1,2,0,1,2,0,1,2,0,1,2,0,1,2,0,1,2,0,1,2,0,1,2,0,1,2,0,1,2,0,1,2,0,1,2,0,1,2,0,1,2,0,1,2,0,1,2,0,1,2,0,1,2,0,1,2,0,1,2,0,1,2,0,1,2,0,1,2,0,1,2,0,1,2,0,1,2,0,1,2,0,1,2,0,1,2,0,1,2,0,1,2,0,1,2,0,1,2,0,1,2,0,1,2,0,1,2,0,1,2,0,1,2,0,1,2,0,1,2,0,1,2,0,1,2,0,1,2,0,1,2,0,1,2,0,1,2,0,1,2,0,1,2,0,1,2,0,1,2,0,1,2,0,1,2,0,1,2,0,1,2,0,1,2,0,1,2,0,1,2,0,1,2,0,1,2,0,1,2,0,1,2,0,1,2,0,1,2,0,1,2,0,1,2,0,1,2,0,1,2,0,1,2,0,1,2,0,1,2,0,1,2,0,1,2,0,1,2,0,1,2,0,1,2,0,1,2,0,1,2,0,1,2,0,1,2,0,1,2,0,1,2,0,1,2,0,1,2,0,1,2,0,1,2,0,1,2,0,1,2,0,1,2,0,1,2,0,1,2,0,1,2,0,1,2,0,1,2,0,1,2],"trees":[{"base_weights":[-1.4399786E-8,5.091999E-1,-5.945806E-1,8.1014055E-1,-3.6185467E-1,-3.3257446E-1,-6.7518413E-1,1.306472E0,7.0558137E-1,-4.0444523E-1,8.035139E-1,-4.030425E-1,4.5885983E-1,-6.812636E-1,1.7009119E-2,1.3074797E0,2.859522E-1,7.921144E-1,2.6697752E-1,-4.2261794E-1,-2.4957609E-1,3.7595633E-1,1.0089958E0,-4.0476313E-1,9.356945E-1,2.2527488E-1,9.6199435E-1,-4.0882197E-1,-6.889633E-1,4.519646E-1,-2.0872504E-1,1.2966443E0,1.3614266E0,8.9480263E-1,5.1381356E-1,-1.3123867E-1,8.193351E-1,-3.9953077E-1,-5.0468665E-1,5.3880584E-1,-3.004918E-1,6.718776E-1,-7.0312285E-1,1.0259349E0,-4.3659252E-1,-3.048234E-1,-4.2710367E-1,3.2805306E-1,-2.6346213E-1,1.2710687E0,7.234569E-1,-2.9868278E-1,-5.718542E-1,-7.044927E-1,-5.8871377E-1,-5.342753E-2,7.8928083E-1,1.0911535E0,-3.5634983E-1,1.2978852E0,8.4037304E-1,8.8736457E-1,1.2842718E0,4.7794038E-1,9.921375E-1,-2.6121715E-1,7.976917E-1,-5.4621124E-1,8.8846546E-1,-4.016531E-1,7.580681E-1,-5.4357105E-1,-3.563332E-1,-3.6532712E-1,9.0120286E-1,-1.0355681E-1,-3.992882E-1,1.1880863E0,4.7884303E-1,1.039723E0,-3.9529625E-1,-3.2603246E-1,4.680127E-1,-3.9440498E-1,-5.00904E-1,-9.984158E-2,4.7662985E-1,-5.616891E-1,4.3073314E-1,2.3233919E-1,1.3002125E0,8.462651E-1,-4.1306275E-1,-1.9709876E-1,-5.012468E-1,-6.5551317E-1,-9.1235265E-2,-6.135403E-1,-7.147645E-1,3.4254044E-1,-5.934646E-1,4.0591368E-1,-6.656771E-1,1.0341023E0,-5.969557E-1,3.6864045E-1,1.1643864E0,-5.2952355E-1,-2.4101168E-2],"categories":[],"categories_nodes":[],"categories_segments":[],"categories_sizes":[],"default_left":[1,1,1,1,1,1,1,1,1,1,1,1,1,1,1,1,0,1,1,1,1,1,1,1,0,1,1,1,1,1,1,1,0,1,1,1,1,1,1,1,1,1,0,1,0,1,1,1,1,1,1,1,1,1,1,1,1,1,1,0,0,0,0,0,0,0,0,0,0,0,0,0,0,0,0,0,0,0,0,0,0,0,0,0,0,0,0,0,0,0,0,0,0,0,0,0,0,0,0,0,0,0,0,0,0,0,0,0,0],"id":0,"left_children":[1,3,5,7,9,11,13,15,17,19,21,23,25,27,29,31,-1,33,35,37,39,41,43,45,-1,47,49,51,53,55,57,59,-1,61,63,65,67,69,71,73,75,77,-1,79,-1,81,83,85,87,89,91,93,95,97,99,101,103,105,107,-1,-1,-1,-1,-1,-1,-1,-1,-1,-1,-1,-1,-1,-1,-1,-1,-1,-1,-1,-1,-1,-1,-1,-1,-1,-1,-1,-1,-1,-1,-1,-1,-1,-1,-1,-1,-1,-1,-1,-1,-1,-1,-1,-1,-1,-1,-1,-1,-1,-1],"loss_changes":[1.3456622E4,6.2764126E3,4.327954E2,9.225547E2,3.0549762E2,2.6932697E2,6.5993164E1,2.8095703E0,5.57728E2,1.6590515E1,1.8695831E1,1.0587402E1,4.620829E1,3.2322754E1,1.3593456E1,4.248047E-2,0E0,3.504131E2,5.332602E2,9.855469E0,2.5268337E1,2.3486042E1,4.0242615E0,9.753662E0,0E0,1.3703323E1,8.291801E0,7.544136E0,2.3114746E1,8.1041155E0,1.7889019E1,3.7890625E-1,0E0,2.4836914E1,5.6348694E1,1.7037213E2,9.635455E1,1.0493835E1,6.5069275E0,1.287878E1,1.1402058E1,5.1179886E0,0E0,3.245697E0,0E0,1.3466667E1,8.527405E0,1.4315546E1,1.0108123E1,1.3054581E0,1.0515869E1,5.220747E0,6.861496E0,1.1783203E1,9.199219E0,5.8571177E0,1.0264084E1,7.590771E-2,4.742652E0,0E0,0E0,0E0,0E0,0E0,0E0,0E0,0E0,0E0,0E0,0E0,0E0,0E0,0E0,0E0,0E0,0E0,0E0,0E0,0E0,0E0,0E0,0E0,0E0,0E0,0E0,0E0,0E0,0E0,0E0,0E0,0E0,0E0,0E0,0E0,0E0,0E0,0E0,0E0,0E0,0E0,0E0,0E0,0E0,0E0,0E0,0E0,0E0,0E0,0E0],"parents":[2147483647,0,0,1,1,2,2,3,3,4,4,5,5,6,6,7,7,8,8,9,9,10,10,11,11,12,12,13,13,14,14,15,15,17,17,18,18,19,19,20,20,21,21,22,22,23,23,25,25,26,26,27,27,28,28,29,29,30,30,31,31,33,33,34,34,35,35,36,36,37,37,38,38,39,39,40,40,41,41,43,43,45,45,46,46,47,47,48,48,49,49,50,50,51,51,52,52,53,53,54,54,55,55,56,56,57,57,58,58],"right_children":[2,4,6,8,10,12,14,16,18,20,22,24,26,28,30,32,-1,34,36,38,40,42,44,46,-1,48,50,52,54,56,58,60,-1,62,64,66,68,70,72,74,76,78,-1,80,-1,82,84,86,88,90,92,94,96,98,100,102,104,106,108,-1,-1,-1,-1,-1,-1,-1,-1,-1,-1,-1,-1,-1,-1,-1,-1,-1,-1,-1,-1,-1,-1,-1,-1,-1,-1,-1,-1,-1,-1,-1,-1,-1,-1,-1,-1,-1,-1,-1,-1,-1,-1,-1,-1,-1,-1,-1,-1,-1,-1],"split_conditions":[1.25E1,1.5E0,1.258735E3,2.5E0,4.0766382E2,2.8341583E2,5.044997E2,1.4973201E3,1.65E1,2.0802908E2,5.6608386E2,1.257995E3,4.9159595E2,1.45E1,1.95E1,1.253595E3,8.5785665E-2,5.5E0,1.15E1,1.270525E3,2.2150002E0,2.15E1,3.25E1,1.043224E1,2.8070837E-1,7.5E0,7.715E0,5.5E0,2.3045E1,1.668E1,5.229009E2,1.251285E3,4.0842798E-1,5.888404E2,5.5E0,5.5E0,2.5E0,1.2701201E3,6.5E0,3.5E0,9.835E0,1.1235001E1,-2.1093686E-1,1.6479127E3,-1.3097776E-1,9.999147E0,6.5E0,3.05185E2,1.4155001E1,5.5E0,1.07343E3,1.485755E3,1.7647849E2,1.39604E3,2.3064999E1,1.75E1,4.748285E3,1.9E1,8.5E0,3.8936558E-1,2.521119E-1,2.662094E-1,3.8528156E-1,1.4338212E-1,2.9764125E-1,-7.836515E-2,2.3930752E-1,-1.6386338E-1,2.6653966E-1,-1.2049594E-1,2.2742043E-1,-1.6307132E-1,-1.0689996E-1,-1.0959814E-1,2.7036086E-1,-3.1067045E-2,-1.1978646E-1,3.5642588E-1,1.4365292E-1,3.1191692E-1,-1.1858888E-1,-9.780974E-2,1.404038E-1,-1.183215E-1,-1.502712E-1,-2.9952476E-2,1.4298896E-1,-1.6850673E-1,1.2921995E-1,6.970176E-2,3.9006376E-1,2.5387955E-1,-1.2391883E-1,-5.912963E-2,-1.5037405E-1,-1.9665396E-1,-2.7370581E-2,-1.840621E-1,-2.1442935E-1,1.0276214E-1,-1.7803939E-1,1.2177411E-1,-1.9970313E-1,3.102307E-1,-1.7908671E-1,1.1059214E-1,3.4931594E-1,-1.5885708E-1,-7.2303507E-3],"split_indices":[7,8,6,5,0,0,0,6,3,0,0,6,0,7,7,6,0,5,2,6,4,3,3,0,0,1,4,5,4,4,0,6,0,0,1,1,1,6,5,5,4,4,0,0,0,0,1,6,4,3,6,6,0,6,4,7,6,2,5,0,0,0,0,0,0,0,0,0,0,0,0,0,0,0,0,0,0,0,0,0,0,0,0,0,0,0,0,0,0,0,0,0,0,0,0,0,0,0,0,0,0,0,0,0,0,0,0,0,0],"split_type":[0,0,0,0,0,0,0,0,0,0,0,0,0,0,0,0,0,0,0,0,0,0,0,0,0,0,0,0,0,0,0,0,0,0,0,0,0,0,0,0,0,0,0,0,0,0,0,0,0,0,0,0,0,0,0,0,0,0,0,0,0,0,0,0,0,0,0,0,0,0,0,0,0,0,0,0,0,0,0,0,0,0,0,0,0,0,0,0,0,0,0,0,0,0,0,0,0,0,0,0,0,0,0,0,0,0,0,0,0],"sum_hessian":[4.444444E4,2.3941254E4,2.050319E4,1.7793758E4,6.1474956E3,4.8248574E3,1.5678332E4,3.094238E3,1.469952E4,5.9313755E3,2.161202E2,4.430834E3,3.9402353E2,1.5541845E4,1.3648755E2,3.0909043E3,3.3336322E0,1.2276633E4,2.4228867E3,5.30692E3,6.244555E2,7.1070175E1,1.4505002E2,4.4258433E3,4.9907594E0,2.700828E2,1.2394074E2,4.286525E2,1.5113192E4,4.6290527E1,9.019702E1,2.5947705E3,4.9613394E2,8.966085E3,3.3105476E3,1.4083295E3,1.0145573E3,4.146356E3,1.1605638E3,3.730109E1,5.871544E2,5.6070927E1,1.499925E1,1.4365697E2,1.3930506E0,8.112744E2,3.6145686E3,2.2342645E2,4.6656338E1,5.2102562E1,7.183818E1,2.5751553E2,1.7113696E2,1.3080847E4,2.0323452E3,1.8865881E1,2.7424646E1,8.546983E0,8.165004E1,2.5858938E3,8.876767E0,8.801277E3,1.6480833E2,3.0814456E3,2.2910219E2,1.2360911E3,1.7223842E2,4.8554207E1,9.660031E2,4.13942E3,6.9361854E0,9.174345E2,2.4312932E2,1.0670788E1,2.6630302E1,1.9683768E2,3.9031674E2,1.3857838E1,4.221309E1,1.4254253E2,1.1144404E0,7.9016785E2,2.1106544E1,2.5091738E3,1.1053948E3,5.766933E1,1.6575713E2,3.2769436E1,1.3886905E1,1.6668161E0,5.0435745E1,6.5063095E1,6.775091E0,1.7282057E2,8.4694954E1,1.454545E2,2.5682457E1,1.333552E3,1.1747295E4,9.954567E0,2.0223906E3,1.0971504E1,7.894376E0,2.3524105E1,3.9005415E0,1.3418767E0,7.2051067E0,5.328383E1,2.8366209E1],"tree_param":{"num_deleted":"0","num_feature":"9","num_nodes":"109","size_leaf_vector":"0"}},{"base_weights":[-5.900794E-8,-3.9092126E-1,8.8303775E-1,-4.4502753E-1,1.2045448E0,1.1090059E0,6.1258334E-1,1.1853201E0,-4.6290597E-1,1.2091109E0,-7.682154E-2,1.2900358E-1,1.1571074E0,9.874792E-1,4.3865636E-1,3.1948787E-1,1.1922255E0,-5.335457E-1,-3.1553248E-1,1.0127925E0,1.2299092E0,1.4287221E-1,-3.9529625E-1,5.2294236E-1,9.853594E-3,1.162478E0,-9.762613E-2,2.5235876E-1,1.0842264E0,4.177038E-1,9.099292E-1,3.169779E-1,1.1963322E0,-7.489855E-1,-4.9524617E-1,6.8711996E-1,-3.9785516E-1,1.1600848E0,6.590829E-1,1.1272132E0,1.2773795E0,1.3268571E0,4.2078668E-1,1.0875661E-1,-5.1685745E-1,2.6212403E-1,1.1659013E0,1.1036196E0,-3.350347E-1,3.422705E-2,4.2749062E-1,8.976639E-1,1.1574496E0,4.2814738E-1,-2.1860605E-1,2.0147187E-1,1.2334971E0,-5.4128027E-1,-3.9082694E-1,1.3483438E-2,1.0348276E0,5.9270835E-1,-4.3888357E-1,1.1961513E0,6.6331154E-1,2.5054854E-1,8.647112E-1,1.1450604E0,8.493106E-5,1.2797834E0,3.169779E-1,-3.998579E-1,5.719709E-1,-9.828476E-2,3.349021E-1,5.754302E-1,-5.651122E-1,-6.933098E-1,1.0470916E0,1.0883844E0,1.2004818E0,1.16786666E-1,-5.766628E-1,-2.1476504E-1,4.212973E-1,1.0990523E0,3.1560487E-1,7.084339E-1,1.1092706E0,1.216433E0,9.5721406E-1,4.3126968E-1,-6.851921E-1,-6.1965823E-1,4.22557E-6,-3.697204E-2,1.0749727E0,9.7022367E-1,1.292248E0],"categories":[],"categories_nodes":[],"categories_segments":[],"categories_sizes":[],"default_left":[1,1,1,1,1,1,1,1,1,1,1,1,1,1,1,0,1,1,1,1,1,0,0,1,1,1,1,1,1,1,1,0,0,0,1,1,1,1,1,1,1,0,1,1,1,1,1,0,1,1,1,1,1,1,1,1,1,0,0,0,0,0,0,0,0,0,0,0,0,0,0,0,0,0,0,0,0,0,0,0,0,0,0,0,0,0,0,0,0,0,0,0,0,0,0,0,0,0,0],"id":1,"left_children":[1,3,5,7,9,11,13,15,17,19,21,23,25,27,29,-1,31,33,35,37,39,-1,-1,41,43,45,47,49,51,53,55,-1,-1,-1,57,59,61,63,65,67,69,-1,71,73,75,77,79,-1,81,83,85,87,89,91,93,95,97,-1,-1,-1,-1,-1,-1,-1,-1,-1,-1,-1,-1,-1,-1,-1,-1,-1,-1,-1,-1,-1,-1,-1,-1,-1,-1,-1,-1,-1,-1,-1,-1,-1,-1,-1,-1,-1,-1,-1,-1,-1,-1],"loss_changes":[1.5342832E4,2.6600122E3,8.32833E2,8.691035E2,6.006714E0,3.500586E2,4.045161E2,1.5532532E0,3.0668408E2,2.8670654E0,3.7337604E-1,1.6362574E1,4.7833984E1,1.3964587E2,4.152765E1,0E0,7.730713E-1,1.6402295E2,7.887867E2,4.557396E0,2.977295E0,0E0,0E0,6.090374E0,1.4056399E1,2.1427734E1,9.240238E0,8.775916E0,2.2706787E1,2.7108826E1,4.097003E1,0E0,0E0,0E0,8.11167E1,1.6984885E2,3.5907275E2,4.7516632E-1,2.500761E0,5.932892E0,1.0075684E0,0E0,9.322364E0,1.066567E1,2.5737467E0,2.1724512E1,1.752246E1,0E0,2.986459E0,1.007142E1,9.236795E0,1.9010925E1,1.3537842E1,1.4200195E1,5.81341E0,1.2030582E1,6.524353E-1,0E0,0E0,0E0,0E0,0E0,0E0,0E0,0E0,0E0,0E0,0E0,0E0,0E0,0E0,0E0,0E0,0E0,0E0,0E0,0E0,0E0,0E0,0E0,0E0,0E0,0E0,0E0,0E0,0E0,0E0,0E0,0E0,0E0,0E0,0E0,0E0,0E0,0E0,0E0,0E0,0E0,0E0],"parents":[2147483647,0,0,1,1,2,2,3,3,4,4,5,5,6,6,7,7,8,8,9,9,10,10,11,11,12,12,13,13,14,14,16,16,17,17,18,18,19,19,20,20,23,23,24,24,25,25,26,26,27,27,28,28,29,29,30,30,34,34,35,35,36,36,37,37,38,38,39,39,40,40,42,42,43,43,44,44,45,45,46,46,48,48,49,49,50,50,51,51,52,52,53,53,54,54,55,55,56,56],"right_children":[2,4,6,8,10,12,14,16,18,20,22,24,26,28,30,-1,32,34,36,38,40,-1,-1,42,44,46,48,50,52,54,56,-1,-1,-1,58,60,62,64,66,68,70,-1,72,74,76,78,80,-1,82,84,86,88,90,92,94,96,98,-1,-1,-1,-1,-1,-1,-1,-1,-1,-1,-1,-1,-1,-1,-1,-1,-1,-1,-1,-1,-1,-1,-1,-1,-1,-1,-1,-1,-1,-1,-1,-1,-1,-1,-1,-1,-1,-1,-1,-1,-1,-1],"split_conditions":[1.496785E3,2.05E1,1.4995E1,5E-1,5.397157E2,1.45E1,2.573665E3,1.5331748E1,1.55E1,2.331958E1,4.65E1,9.5E0,5.456012E2,1.45E1,1E0,9.584636E-2,1.35E1,2.5E0,2.5E0,1.395905E3,6.5E0,4.2861667E-2,-1.1858888E-1,1.7819283E1,2.4594702E3,1.500005E3,1.699865E3,5.5E0,1.95E1,5.0440106E2,1.65E1,9.509337E-2,3.5889968E-1,-2.2469567E-1,5.5E0,1.85E1,5.5E0,2.35E1,3.45E1,3.3476453E2,2.2435001E1,3.9805713E-1,4.293398E1,5.5E0,8.284266E0,7.5E0,2.05E1,3.310859E-1,6.5E0,2.2792349E3,1.59386E3,6.5E0,1.95E1,2.9974998E1,2.05E1,3.2E1,1.45E1,-1.623841E-1,-1.1724809E-1,4.0450315E-3,3.104483E-1,1.7781252E-1,-1.3166508E-1,3.5884538E-1,1.9899347E-1,7.5164564E-2,2.594134E-1,3.4351814E-1,2.547932E-5,3.8393503E-1,9.509337E-2,-1.1995738E-1,1.7159127E-1,-2.9485429E-2,1.0047064E-1,1.7262907E-1,-1.6953366E-1,-2.0799294E-1,3.141275E-1,3.2651532E-1,3.6014456E-1,3.5036E-2,-1.7299885E-1,-6.4429514E-2,1.263892E-1,3.297157E-1,9.4681464E-2,2.1253018E-1,3.327812E-1,3.649299E-1,2.8716424E-1,1.2938091E-1,-2.0555764E-1,-1.8589747E-1,1.2676711E-6,-1.1091612E-2,3.2249182E-1,2.9106712E-1,3.8767442E-1],"split_indices":[6,7,4,8,0,7,6,0,3,0,3,2,0,7,8,0,2,5,1,6,1,0,0,0,6,6,6,1,7,0,7,0,0,0,5,3,2,2,3,0,4,0,0,5,0,1,7,0,5,6,6,5,2,4,7,3,3,0,0,0,0,0,0,0,0,0,0,0,0,0,0,0,0,0,0,0,0,0,0,0,0,0,0,0,0,0,0,0,0,0,0,0,0,0,0,0,0,0,0],"split_type":[0,0,0,0,0,0,0,0,0,0,0,0,0,0,0,0,0,0,0,0,0,0,0,0,0,0,0,0,0,0,0,0,0,0,0,0,0,0,0,0,0,0,0,0,0,0,0,0,0,0,0,0,0,0,0,0,0,0,0,0,0,0,0,0,0,0,0,0,0,0,0,0,0,0,0,0,0,0,0,0,0,0,0,0,0,0,0,0,0,0,0,0,0,0,0,0,0,0,0],"sum_hessian":[4.444444E4,3.0806812E4,1.3637631E4,2.979704E4,1.0097718E3,7.4281836E3,6.2094478E3,3.2250226E2,2.9474537E4,1.0062425E3,3.5292728E0,3.4771097E2,7.0804727E3,1.9663484E3,4.243099E3,2.9257233E0,3.1957654E2,1.9922555E4,9.551982E3,1.0115196E2,9.050905E2,2.4148324E0,1.1144404E0,7.995881E1,2.6775214E2,7.0503687E3,3.0104212E1,2.2910812E2,1.7372402E3,4.0642893E3,1.7880988E2,1.8576121E0,3.1771893E2,3.0043132E3,1.6918242E4,7.242012E2,8.827781E3,6.98042E1,3.134776E1,2.9393808E2,6.1115247E2,7.6633635E0,7.229545E1,2.2609142E2,4.1660736E1,2.699865E1,7.02337E3,4.3657374E0,2.5738474E1,1.0256097E2,1.2654716E2,4.9339645E2,1.2438438E3,3.9989824E3,6.530699E1,5.65705E1,1.2223938E2,1.1738875E4,5.179366E3,2.4690155E2,4.7729962E2,3.505632E2,8.477219E3,6.37668E1,6.037398E0,1.1238332E1,2.0109428E1,2.893407E2,4.597384E0,6.0929486E2,1.8576121E0,1.0990883E1,6.130456E1,1.1832634E2,1.0776507E2,1.3003919E0,4.0360344E1,1.2229777E1,1.4768872E1,2.176632E3,4.846738E3,9.148438E0,1.6590036E1,6.2683487E1,3.987748E1,1.6812437E1,1.0973472E2,2.6276547E2,2.3063098E2,9.5689606E2,2.8694772E2,3.9884097E3,1.0572651E1,2.2392403E1,4.2914585E1,4.519191E1,1.1378588E1,2.5496948E1,9.674243E1],"tree_param":{"num_deleted":"0","num_feature":"9","num_nodes":"99","size_leaf_vector":"0"}},{"base_weights":[-4.895324E-8,-3.0527717E-1,5.162218E-1,-3.9044678E-1,1.0814303E-1,7.9810435E-1,-2.8437993E-1,-5.583861E-1,-3.648649E-1,-4.1955763E-1,1.7988513E-1,8.523397E-1,-4.4459847E-1,3.5332066E-1,-3.870888E-1,-5.594078E-1,2.9098275E-1,-3.1119087E-1,-4.5530733E-1,-2.245445E-1,-4.7010654E-1,1.14166826E-1,2.4527498E-1,8.8885885E-1,-1.0988845E-2,-4.594469E-1,6.5571666E-1,1.3018742E-1,4.4713193E-1,-2.5069934E-1,-4.6380302E-1,-5.4724014E-1,-6.219413E-1,-3.569096E-1,-1.9090936E-1,-4.587002E-1,-5.773224E-2,-3.32836E-1,2.1884878E-1,-4.7324067E-1,2.3642653E-1,2.6736853E-1,8.3095394E-2,2.8795493E-1,5.905366E-2,8.9760804E-1,-4.1614005E-1,3.6786872E-1,-2.1543735E-1,-3.2558316E-1,-5.096629E-1,3.2299685E-1,8.406539E-1,-8.7824E-2,5.539433E-1,8.111176E-1,3.5345632E-1,-1.7837669E-1,-4.3777484E-1,-4.665023E-1,4.900874E-1,-5.165788E-1,-5.658446E-1,-4.150835E-1,-6.368915E-1,8.848897E-2,-3.5881644E-1,-1.409508E-1,-4.7091284E-1,-4.866016E-1,-4.3197072E-1,-4.7520158E-1,4.850544E-1,6.274617E-2,-3.7905374E-1,-9.633557E-2,7.093562E-1,-5.066417E-1,-4.1118366E-1,1.7141688E-1,6.908613E-1,1.0679742E-1,-1.2707807E-1,1.6553296E-1,3.5274178E-1,-1.308078E-1,1.9690157E-1,9.201023E-1,6.45319E-1,1.1038141E0,-4.8958412E-1,1.6695537E-1,6.04073E-1,-8.506906E-2,-3.9829114E-1,-3.6321646E-1,2.017224E-1,-5.139364E-1,3.7097603E-1,2.6946062E-2,4.9079233E-1,2.1887709E-1,9.915721E-1,-1.819238E-1,2.1140154E-1,-6.6342854E-1,7.424622E-1,1.9580528E-1,8.9402026E-1,-1.023321E-1,4.0682366E-1,-1.9430959E-1,6.0127074E-1,-5.026347E-1,-3.4317282E-1,-2.2925039E-1,-4.7025427E-1,7.0983744E-1,3.094577E-2],"categories":[],"categories_nodes":[],"categories_segments":[],"categories_sizes":[],"default_left":[1,1,1,1,1,1,1,1,1,1,1,1,1,1,1,1,0,1,1,1,1,1,1,1,1,1,1,1,1,1,1,1,1,1,1,1,1,1,1,1,0,1,1,1,1,1,1,1,1,1,1,1,1,1,1,1,1,1,1,1,1,0,0,0,0,0,0,0,0,0,0,0,0,0,0,0,0,0,0,0,0,0,0,0,0,0,0,0,0,0,0,0,0,0,0,0,0,0,0,0,0,0,0,0,0,0,0,0,0,0,0,0,0,0,0,0,0,0,0],"id":2,"left_children":[1,3,5,7,9,11,13,15,17,19,21,23,25,27,29,31,-1,33,35,37,39,41,43,45,47,49,51,53,55,57,59,61,63,65,67,69,71,73,75,77,-1,79,81,83,85,87,89,91,93,95,97,99,101,103,105,107,109,111,113,115,117,-1,-1,-1,-1,-1,-1,-1,-1,-1,-1,-1,-1,-1,-1,-1,-1,-1,-1,-1,-1,-1,-1,-1,-1,-1,-1,-1,-1,-1,-1,-1,-1,-1,-1,-1,-1,-1,-1,-1,-1,-1,-1,-1,-1,-1,-1,-1,-1,-1,-1,-1,-1,-1,-1,-1,-1,-1,-1],"loss_changes":[7.004347E3,9.8347046E2,3.7276523E3,9.929175E1,1.807266E2,8.237173E2,2.8189066E2,2.81781E0,9.743408E1,5.527046E0,1.8026596E1,3.6906055E2,8.658226E0,1.2443825E1,3.8654358E1,1.9850464E0,0E0,6.931677E1,1.0068726E1,5.812407E0,1.1146774E0,9.961317E0,1.6713982E1,1.2859961E2,3.69518E1,3.230629E0,1.7290163E-1,1.651056E1,1.4036133E1,1.7999077E1,6.33197E0,1.171875E0,1.2524872E0,7.79541E0,4.8574318E1,5.3239746E0,1.4839386E1,1.7874994E0,3.7891226E0,7.2689056E-1,0E0,1.4233263E1,8.706889E0,1.3522568E1,1.0331295E1,6.2716797E1,8.965794E0,7.8348866E0,7.35168E0,2.863513E0,1.5668335E0,1.9562948E-1,1.6004229E-1,3.3756819E0,1.4415995E1,4.171505E0,8.211124E0,1.2107468E1,2.1090164E0,1.9967651E0,7.021049E-1,0E0,0E0,0E0,0E0,0E0,0E0,0E0,0E0,0E0,0E0,0E0,0E0,0E0,0E0,0E0,0E0,0E0,0E0,0E0,0E0,0E0,0E0,0E0,0E0,0E0,0E0,0E0,0E0,0E0,0E0,0E0,0E0,0E0,0E0,0E0,0E0,0E0,0E0,0E0,0E0,0E0,0E0,0E0,0E0,0E0,0E0,0E0,0E0,0E0,0E0,0E0,0E0,0E0,0E0,0E0,0E0,0E0,0E0],"parents":[2147483647,0,0,1,1,2,2,3,3,4,4,5,5,6,6,7,7,8,8,9,9,10,10,11,11,12,12,13,13,14,14,15,15,17,17,18,18,19,19,20,20,21,21,22,22,23,23,24,24,25,25,26,26,27,27,28,28,29,29,30,30,31,31,32,32,33,33,34,34,35,35,36,36,37,37,38,38,39,39,41,41,42,42,43,43,44,44,45,45,46,46,47,47,48,48,49,49,50,50,51,51,52,52,53,53,54,54,55,55,56,56,57,57,58,58,59,59,60,60],"right_children":[2,4,6,8,10,12,14,16,18,20,22,24,26,28,30,32,-1,34,36,38,40,42,44,46,48,50,52,54,56,58,60,62,64,66,68,70,72,74,76,78,-1,80,82,84,86,88,90,92,94,96,98,100,102,104,106,108,110,112,114,116,118,-1,-1,-1,-1,-1,-1,-1,-1,-1,-1,-1,-1,-1,-1,-1,-1,-1,-1,-1,-1,-1,-1,-1,-1,-1,-1,-1,-1,-1,-1,-1,-1,-1,-1,-1,-1,-1,-1,-1,-1,-1,-1,-1,-1,-1,-1,-1,-1,-1,-1,-1,-1,-1,-1,-1,-1,-1,-1],"split_conditions":[1.5E0,1.498E1,1.498715E3,2.5E0,2.502E3,2.05E1,1.45E1,1.4973201E3,1.25E1,1.15E1,2.45E1,3.8098083E2,3.3476453E2,1.05E1,2.05E1,1.253595E3,8.729483E-2,5.5E0,4.854937E2,5.5E0,5.26722E2,1.65E1,5.45E1,7.5E0,4.909514E2,5.5E0,1.15E1,1.15E1,1.25E1,7.5E0,6.3807983E2,3.477443E1,5E-1,5.45E-1,1.75E1,5.6949997E0,1.3130801E3,3.6239712E0,7.5E0,1.994225E3,7.092796E-2,2.366382E2,3.2643024E2,6.5E0,8.352684E1,2.2567365E2,2.72575E2,7.7749E2,7.774214E2,9.5E0,2.5685001E1,5.55E1,4.35E1,1.4112613E2,1.9499847E1,1.60775E3,1.64558E3,3.5566504E2,2.14183E3,1.0622984E1,1.25E1,-1.5497364E-1,-1.6975339E-1,-1.24525055E-1,-1.9106746E-1,2.6546692E-2,-1.0764494E-1,-4.228524E-2,-1.4127386E-1,-1.4598048E-1,-1.2959123E-1,-1.4256048E-1,1.4551632E-1,1.882385E-2,-1.13716125E-1,-2.8900672E-2,2.1280687E-1,-1.5199251E-1,-1.233551E-1,5.1425066E-2,2.0725839E-1,3.203923E-2,-3.812342E-2,4.965989E-2,1.0582254E-1,-3.9242342E-2,5.9070475E-2,2.760307E-1,1.935957E-1,3.3114424E-1,-1.4687525E-1,5.0086614E-2,1.812219E-1,-2.552072E-2,-1.19487345E-1,-1.0896494E-1,6.0516723E-2,-1.5418093E-1,1.1129282E-1,8.083819E-3,1.472377E-1,6.566313E-2,2.9747164E-1,-5.4577146E-2,6.342047E-2,-1.9902857E-1,2.2273867E-1,5.874159E-2,2.682061E-1,-3.0699631E-2,1.22047104E-1,-5.829288E-2,1.8038122E-1,-1.5079042E-1,-1.0295185E-1,-6.877512E-2,-1.4107628E-1,2.1295124E-1,9.283732E-3],"split_indices":[8,4,6,5,6,7,7,6,2,3,7,0,0,2,7,6,0,5,0,5,0,7,3,5,0,1,2,7,2,5,0,0,2,4,3,4,6,0,7,6,0,0,0,5,0,0,6,6,0,5,4,3,3,0,0,6,6,0,6,0,2,0,0,0,0,0,0,0,0,0,0,0,0,0,0,0,0,0,0,0,0,0,0,0,0,0,0,0,0,0,0,0,0,0,0,0,0,0,0,0,0,0,0,0,0,0,0,0,0,0,0,0,0,0,0,0,0,0,0],"split_type":[0,0,0,0,0,0,0,0,0,0,0,0,0,0,0,0,0,0,0,0,0,0,0,0,0,0,0,0,0,0,0,0,0,0,0,0,0,0,0,0,0,0,0,0,0,0,0,0,0,0,0,0,0,0,0,0,0,0,0,0,0,0,0,0,0,0,0,0,0,0,0,0,0,0,0,0,0,0,0,0,0,0,0,0,0,0,0,0,0,0,0,0,0,0,0,0,0,0,0,0,0,0,0,0,0,0,0,0,0,0,0,0,0,0,0,0,0,0,0],"sum_hessian":[4.444444E4,2.7928707E4,1.6515736E4,2.3157943E4,4.7707637E3,1.2214985E4,4.3007505E3,3.0585325E3,2.009941E4,5.7039105E2,4.2003726E3,1.170448E4,5.1050504E2,5.962573E2,3.7044934E3,3.055199E3,3.3336322E0,1.2616474E4,7.482937E3,1.1853514E2,4.5185593E2,2.0962944E3,2.1040784E3,1.122944E4,4.750398E2,5.0428232E2,6.2227154E0,1.7719081E2,4.1906653E2,1.3351002E3,2.3693933E3,2.5657178E3,4.894812E2,9.1403E3,3.4761738E3,7.419466E3,6.3470848E1,9.5468E1,2.3067139E1,4.501891E2,1.6668161E0,3.5218686E2,1.7441074E3,1.7113165E3,3.9276187E2,1.1154966E4,7.447486E1,1.6622107E2,3.0881873E2,1.3960713E2,3.646752E2,3.2043333E0,3.0183818E0,1.1752169E2,5.966912E1,8.420828E1,3.3485825E2,9.642705E2,3.7082968E2,2.3632168E3,6.176386E0,9.7976605E2,1.5859517E3,3.493047E1,4.5455072E2,3.8770805E1,9.101529E3,2.9511326E3,5.2504114E2,3.6217378E3,3.7977283E3,3.5947407E1,2.7523441E1,9.949723E0,8.551828E1,1.4532573E1,8.534566E0,2.8800946E2,1.6217963E2,2.8827628E2,6.3910595E1,1.5677936E3,1.7631392E2,5.93461E2,1.1178555E3,1.6523312E2,2.2752873E2,1.023937E4,9.155958E2,2.786101E0,7.168877E1,9.074282E1,7.547825E1,1.8113855E2,1.2768017E2,1.3059769E2,9.009451E0,3.633285E2,1.3467212E0,1.579002E0,1.6253314E0,1.0681112E0,1.9502708E0,8.9703835E1,2.7817852E1,7.6633635E0,5.200576E1,1.0397656E1,7.381063E1,3.500212E1,2.9985614E2,9.45695E2,1.8575487E1,2.1743881E2,1.5339085E2,3.7757694E1,2.3254592E3,3.8078828E0,2.368503E0],"tree_param":{"num_deleted":"0","num_feature":"9","num_nodes":"119","size_leaf_vector":"0"}},{"base_weights":[-2.8564755E-3,3.6973518E-1,-5.1470214E-1,5.6499475E-1,-2.9219213E-1,-2.6635933E-1,-5.973883E-1,8.8582903E-1,4.94965E-1,-3.298484E-1,5.907733E-1,-3.2864463E-1,3.6589664E-1,-6.034733E-1,1.6774151E-2,8.8639665E-1,2.424484E-1,5.562635E-1,2.0394781E-1,-3.0879635E-1,-4.4633344E-1,2.9410538E-1,7.2477084E-1,-2.2147056E-1,-3.480885E-1,2.1067867E-1,7.163669E-1,-4.848475E-1,-6.232443E-1,8.9437515E-1,-5.435913E-2,8.8197273E-1,9.6491665E-1,6.2241626E-1,3.715671E-1,-3.2044503E-1,4.1204235E-1,-3.4086138E-1,-1.8129191E-1,-4.8331466E-1,-3.1732616E-1,5.2315027E-1,-6.577305E-1,7.374461E-1,-4.2959544E-1,-4.1456258E-1,-1.5902188E-1,-3.112827E-1,-4.3262133E-1,3.0270398E-1,-2.5144854E-1,7.458817E-1,-5.3008306E-1,-3.1089702E-1,-5.704792E-1,-6.602601E-1,-5.7296455E-1,3.216042E-1,-2.946389E-1,8.7560904E-1,9.251911E-1,9.679983E-1,2.9800168E-1,5.341396E-1,6.494663E-1,3.407076E-1,6.4933354E-1,-3.196964E-2,-6.019692E-1,-3.5743615E-1,5.258124E-1,-3.4322837E-1,8.1981635E-1,6.673023E-1,-2.0260459E-1,-5.0382495E-1,2.5703356E-2,-1.7070429E-1,-6.9201475E-1,9.602455E-1,3.5639903E-1,5.88372E-1,8.557712E-1,-6.043855E-1,-2.153153E-1,8.549867E-1,-1.9315854E-1,8.548005E-2,-3.231409E-1,-3.8658276E-1,-5.906266E-1,-9.158757E-2,4.0654057E-1,-5.2733904E-1,3.6893713E-1,3.766534E-1,8.4430504E-1,-6.7051387E-1,-2.5075054E-1,-5.894894E-1,-1.17532425E-1,-6.272378E-1,-6.719841E-1,-6.4131916E-1,-5.376066E-1,-8.76855E-2,5.81151E-1,-4.6335396E-1,1.0534205E-2],"categories":[],"categories_nodes":[],"categories_segments":[],"categories_sizes":[],"default_left":[1,1,1,1,1,1,1,1,1,1,1,1,1,1,1,1,0,1,1,1,1,1,1,1,1,1,1,1,1,0,1,1,1,1,1,1,1,1,1,1,1,1,0,1,0,1,1,1,1,1,1,1,0,1,1,1,1,1,1,0,0,0,0,0,0,0,0,0,0,0,0,0,0,0,0,0,0,0,0,0,0,0,0,0,0,0,0,0,0,0,0,0,0,0,0,0,0,0,0,0,0,0,0,0,0,0,0,0,0],"id":3,"left_children":[1,3,5,7,9,11,13,15,17,19,21,23,25,27,29,31,-1,33,35,37,39,41,43,45,47,49,51,53,55,-1,57,59,61,63,65,67,69,71,73,75,77,79,-1,81,-1,83,85,87,89,91,93,95,-1,97,99,101,103,105,107,-1,-1,-1,-1,-1,-1,-1,-1,-1,-1,-1,-1,-1,-1,-1,-1,-1,-1,-1,-1,-1,-1,-1,-1,-1,-1,-1,-1,-1,-1,-1,-1,-1,-1,-1,-1,-1,-1,-1,-1,-1,-1,-1,-1,-1,-1,-1,-1,-1,-1],"loss_changes":[8.269323E3,3.2435056E3,3.749419E2,4.3494873E2,1.9027563E2,1.798753E2,5.122168E1,1.0524902E0,2.83677E2,1.3309509E1,9.096748E0,8.583038E0,2.2142918E1,3.1521484E1,8.501808E0,3.5327148E-1,0E0,1.6031592E2,3.0234454E2,1.8939392E1,3.8403625E0,1.6597095E1,2.6673508E0,7.6625595E0,1.0804199E1,1.2215302E1,5.0077667E0,2.876358E1,2.126123E1,0E0,1.1495212E1,9.5947266E-2,6.9747925E-2,2.2751953E1,2.9503021E1,6.392337E1,1.7379688E2,1.0480804E1,1.7064392E1,6.785385E0,1.0287834E1,4.078144E0,0E0,2.3058472E0,0E0,5.770277E0,1.6985146E1,1.1568466E1,7.5108643E0,9.801691E0,8.401344E0,4.1479034E0,0E0,1.374258E1,1.1131195E1,2.1687012E0,1.1589111E1,5.328975E0,3.9959288E0,0E0,0E0,0E0,0E0,0E0,0E0,0E0,0E0,0E0,0E0,0E0,0E0,0E0,0E0,0E0,0E0,0E0,0E0,0E0,0E0,0E0,0E0,0E0,0E0,0E0,0E0,0E0,0E0,0E0,0E0,0E0,0E0,0E0,0E0,0E0,0E0,0E0,0E0,0E0,0E0,0E0,0E0,0E0,0E0,0E0,0E0,0E0,0E0,0E0,0E0],"parents":[2147483647,0,0,1,1,2,2,3,3,4,4,5,5,6,6,7,7,8,8,9,9,10,10,11,11,12,12,13,13,14,14,15,15,17,17,18,18,19,19,20,20,21,21,22,22,23,23,24,24,25,25,26,26,27,27,28,28,30,30,31,31,32,32,33,33,34,34,35,35,36,36,37,37,38,38,39,39,40,40,41,41,43,43,45,45,46,46,47,47,48,48,49,49,50,50,51,51,53,53,54,54,55,55,56,56,57,57,58,58],"right_children":[2,4,6,8,10,12,14,16,18,20,22,24,26,28,30,32,-1,34,36,38,40,42,44,46,48,50,52,54,56,-1,58,60,62,64,66,68,70,72,74,76,78,80,-1,82,-1,84,86,88,90,92,94,96,-1,98,100,102,104,106,108,-1,-1,-1,-1,-1,-1,-1,-1,-1,-1,-1,-1,-1,-1,-1,-1,-1,-1,-1,-1,-1,-1,-1,-1,-1,-1,-1,-1,-1,-1,-1,-1,-1,-1,-1,-1,-1,-1,-1,-1,-1,-1,-1,-1,-1,-1,-1,-1,-1,-1],"split_conditions":[1.25E1,1.5E0,1.26461E3,2.5E0,4.0766382E2,2.8341583E2,5.044997E2,1.4973201E3,1.55E1,1.37833E3,5.6608386E2,5.587363E0,4.9646362E2,1.65E1,5.229009E2,1.448975E3,7.273453E-2,5.5E0,7.5E0,1.4724216E2,6.5E0,2.15E1,3.25E1,3.3064E2,6.5E0,7.5E0,1.2021951E3,1.49829E3,1.5255E1,2.6831254E-1,1.95E1,1.0764999E1,1.35E1,1.679813E1,1.35E1,1.95E1,2.5E0,1.37614E3,1.035E0,2.6509778E2,1.1982715E2,3.3112E2,-1.9731916E-1,7.534213E2,-1.2887864E-1,5.5E0,3.4503998E2,4.62E1,1.04345E3,2.9040002E2,1.4155001E1,2.741E2,-1.5902492E-1,1E0,2.667E1,2.05E1,2.613405E3,1.668E1,8.5E0,2.6268274E-1,2.7755734E-1,2.9039952E-1,8.940051E-2,1.6024187E-1,1.948399E-1,1.0221229E-1,1.9480006E-1,-9.590892E-3,-1.8059076E-1,-1.0723085E-1,1.5774372E-1,-1.02968514E-1,2.4594492E-1,2.0019071E-1,-6.078138E-2,-1.5114748E-1,7.711007E-3,-5.121129E-2,-2.0760444E-1,2.8807366E-1,1.0691971E-1,1.765116E-1,2.5673136E-1,-1.8131566E-1,-6.459459E-2,2.5649604E-1,-5.7947565E-2,2.5644016E-2,-9.694227E-2,-1.15974836E-1,-1.7718798E-1,-2.7476273E-2,1.21962175E-1,-1.5820172E-1,1.1068115E-1,1.1299603E-1,2.5329152E-1,-2.0115417E-1,-7.522517E-2,-1.7684683E-1,-3.5259727E-2,-1.8817134E-1,-2.0159523E-1,-1.9239576E-1,-1.6128199E-1,-2.6305651E-2,1.7434531E-1,-1.390062E-1,3.1602615E-3],"split_indices":[7,8,6,5,0,0,0,6,3,6,0,0,0,7,0,6,0,5,2,0,5,3,3,6,1,1,6,6,4,0,7,4,2,0,2,3,1,6,4,0,0,6,0,0,0,5,6,6,6,6,4,6,0,8,4,7,6,4,5,0,0,0,0,0,0,0,0,0,0,0,0,0,0,0,0,0,0,0,0,0,0,0,0,0,0,0,0,0,0,0,0,0,0,0,0,0,0,0,0,0,0,0,0,0,0,0,0,0,0],"split_type":[0,0,0,0,0,0,0,0,0,0,0,0,0,0,0,0,0,0,0,0,0,0,0,0,0,0,0,0,0,0,0,0,0,0,0,0,0,0,0,0,0,0,0,0,0,0,0,0,0,0,0,0,0,0,0,0,0,0,0,0,0,0,0,0,0,0,0,0,0,0,0,0,0,0,0,0,0,0,0,0,0,0,0,0,0,0,0,0,0,0,0,0,0,0,0,0,0,0,0,0,0,0,0,0,0,0,0,0,0],"sum_hessian":[4.3358855E4,2.5092998E4,1.8265857E4,1.9377148E4,5.71585E3,4.563598E3,1.3702259E4,3.469651E3,1.5907497E4,5.482655E3,2.3319528E2,4.1547793E3,4.0881873E2,1.356785E4,1.3440999E2,3.4662153E3,3.4356725E0,1.3139038E4,2.7684597E3,4.646546E3,8.3610913E2,7.3550575E1,1.596447E2,6.3992444E2,3.5148547E3,2.8444394E2,1.243748E2,1.9419094E3,1.1625939E4,9.209936E0,1.2520005E2,3.2929211E3,1.73294E2,9.67233E3,3.4667073E3,7.863466E2,1.9821132E3,3.7114978E3,9.350478E2,6.476947E2,1.8841446E2,5.964765E1,1.3902925E1,1.5826804E2,1.3766631E0,1.5500595E2,4.849185E2,2.4519517E3,1.0629032E3,2.3749545E2,4.6948475E1,1.2189015E2,2.484654E0,6.421305E2,1.299779E3,6.689221E3,4.9367188E3,4.868487E1,7.651518E1,2.888817E3,4.0410434E2,1.7204755E2,1.2464479E0,2.2735242E3,7.398806E3,3.1220754E3,3.4463177E2,3.8892847E2,3.9741815E2,2.5503748E2,1.7270757E3,3.7046472E3,6.8506813E0,2.2166039E1,9.128818E2,6.2261725E2,2.5077425E1,1.364679E2,5.1946564E1,1.5157537E1,4.4490112E1,7.267702E1,8.559103E1,7.833902E1,7.666693E1,1.5009984E1,4.699085E2,7.097543E1,2.380976E3,8.2574854E2,2.3715465E2,4.953138E1,1.8796408E2,3.2600677E1,1.43478E1,2.6669243E1,9.522091E1,9.055465E1,5.515758E2,1.2471354E3,5.2643604E1,1.7669272E3,4.922294E3,1.6771945E3,3.2595242E3,1.9149471E1,2.9535398E1,4.8940224E1,2.7574957E1],"tree_param":{"num_deleted":"0","num_feature":"9","num_nodes":"109","size_leaf_vector":"0"}},{"base_weights":[-1.4868451E-3,-3.283249E-1,6.1193484E-1,-3.7496525E-1,8.300057E-1,7.4967664E-1,4.3864056E-1,8.080707E-1,-3.9011073E-1,8.421075E-1,5.4550505E-1,6.318758E-2,7.872651E-1,7.0133084E-1,3.271145E-1,2.0163378E-1,8.1308365E-1,-6.6968244E-1,-3.59585E-1,6.8173265E-1,8.5616046E-1,6.355598E-1,-2.726411E-1,3.5810602E-1,-5.7348352E-2,7.904709E-1,-5.9375394E-2,1.7255989E-1,7.7157414E-1,3.0320856E-1,6.7862856E-1,8.1750745E-1,3.029291E-1,-6.7094874E-1,1.838239E-1,-4.1914007E-1,-2.555245E-1,7.752507E-1,4.555483E-1,6.4501673E-1,8.670152E-1,1.0326519E-1,7.213015E-1,-5.8011854E-1,4.730677E-2,-6.331465E-1,4.8644704E-1,-4.5649773E-1,3.334521E-2,6.611652E-1,8.0563694E-1,9.004561E-1,-2.936301E-1,6.2616035E-2,5.299362E-1,6.6230625E-1,8.290483E-1,3.0840564E-1,-3.6027944E-1,4.6261374E-2,8.1128395E-1,2.173142E-1,8.204315E-1,1.3708869E-1,3.8665852E-1,7.241675E-1,-4.4764903E-1,-4.624034E-1,-3.2379308E-1,1.575672E-1,-4.305306E-1,8.038549E-1,4.6547258E-1,9.287274E-2,6.127735E-1,8.439112E-1,3.4218562E-1,8.6844194E-1,-1.8956551E-2,2.4216366E-1,-1.4765202E-1,7.6464957E-1,-6.94713E-2,4.6112767E-1,-4.3168277E-1,6.962512E-1,2.0490915E-1,8.81441E-1,-5.294933E-1,7.194279E-1,-4.3995306E-2,3.504066E-1,7.678971E-1,8.479627E-1,7.838316E-1,1.0179724E-1,-5.226584E-1,1.14203736E-1,-5.993161E-1,1.756168E-1,7.988982E-1,4.6504104E-1,8.495892E-1,8.321886E-1,-5.830143E-1,3.1094614E-1,-6.545293E-1,-4.4785136E-1,8.6660874E-1,4.0833926E-1,-4.1575322E-1,6.72921E-1,8.957639E-1],"categories":[],"categories_nodes":[],"categories_segments":[],"categories_sizes":[],"default_left":[1,1,1,1,1,1,1,1,1,1,1,1,1,1,1,0,1,1,1,1,1,1,1,1,1,1,1,1,1,1,1,1,1,0,1,1,1,1,1,1,1,1,1,0,1,0,1,1,1,1,1,0,1,1,1,1,1,1,1,1,1,0,0,0,0,0,0,0,0,0,0,0,0,0,0,0,0,0,0,0,0,0,0,0,0,0,0,0,0,0,0,0,0,0,0,0,0,0,0,0,0,0,0,0,0,0,0,0,0,0,0,0,0],"id":4,"left_children":[1,3,5,7,9,11,13,15,17,19,21,23,25,27,29,-1,31,33,35,37,39,41,43,45,47,49,51,53,55,57,59,61,63,-1,65,67,69,71,73,75,77,79,81,-1,83,-1,85,87,89,91,93,-1,95,97,99,101,103,105,107,109,111,-1,-1,-1,-1,-1,-1,-1,-1,-1,-1,-1,-1,-1,-1,-1,-1,-1,-1,-1,-1,-1,-1,-1,-1,-1,-1,-1,-1,-1,-1,-1,-1,-1,-1,-1,-1,-1,-1,-1,-1,-1,-1,-1,-1,-1,-1,-1,-1,-1,-1,-1,-1],"loss_changes":[8.694571E3,1.5287991E3,3.5949658E2,4.876372E2,3.3120728E0,2.1663525E2,1.9541748E2,8.8217163E-1,2.2894092E2,1.7802124E0,3.6754227E0,1.5555545E1,2.1655273E1,7.3757324E1,3.920331E1,0E0,5.2186584E-1,2.979248E0,1.4995117E2,1.5381203E0,1.6420288E0,1.893507E0,5.599624E-1,1.6455612E1,1.1276523E1,1.5020996E1,7.2260203E0,9.183435E0,1.0477539E1,1.5258728E1,2.4946014E1,4.1392517E-1,9.756267E-3,0E0,1.9277014E0,6.3368652E1,6.3741296E2,1.7373276E-1,1.5727439E0,2.7750607E0,1.1674805E0,2.849213E-1,1.3204231E0,0E0,9.0814567E-1,0E0,6.5286827E0,6.0984488E0,1.35316105E1,2.7531525E1,5.8828125E0,0E0,2.3754382E0,6.232727E0,5.106101E0,2.2147552E1,5.569641E0,1.0867798E1,4.1059194E0,8.986261E0,2.2740936E0,0E0,0E0,0E0,0E0,0E0,0E0,0E0,0E0,0E0,0E0,0E0,0E0,0E0,0E0,0E0,0E0,0E0,0E0,0E0,0E0,0E0,0E0,0E0,0E0,0E0,0E0,0E0,0E0,0E0,0E0,0E0,0E0,0E0,0E0,0E0,0E0,0E0,0E0,0E0,0E0,0E0,0E0,0E0,0E0,0E0,0E0,0E0,0E0,0E0,0E0,0E0,0E0],"parents":[2147483647,0,0,1,1,2,2,3,3,4,4,5,5,6,6,7,7,8,8,9,9,10,10,11,11,12,12,13,13,14,14,16,16,17,17,18,18,19,19,20,20,21,21,22,22,23,23,24,24,25,25,26,26,27,27,28,28,29,29,30,30,31,31,32,32,34,34,35,35,36,36,37,37,38,38,39,39,40,40,41,41,42,42,44,44,46,46,47,47,48,48,49,49,50,50,52,52,53,53,54,54,55,55,56,56,57,57,58,58,59,59,60,60],"right_children":[2,4,6,8,10,12,14,16,18,20,22,24,26,28,30,-1,32,34,36,38,40,42,44,46,48,50,52,54,56,58,60,62,64,-1,66,68,70,72,74,76,78,80,82,-1,84,-1,86,88,90,92,94,-1,96,98,100,102,104,106,108,110,112,-1,-1,-1,-1,-1,-1,-1,-1,-1,-1,-1,-1,-1,-1,-1,-1,-1,-1,-1,-1,-1,-1,-1,-1,-1,-1,-1,-1,-1,-1,-1,-1,-1,-1,-1,-1,-1,-1,-1,-1,-1,-1,-1,-1,-1,-1,-1,-1,-1,-1,-1,-1],"split_conditions":[1.48961E3,2.05E1,1.4985E1,5E-1,2.925891E2,1.45E1,2.5235298E3,1.5331748E1,2.5E0,2.1018715E1,1.470875E3,9.5E0,5.456012E2,1.45E1,1E0,6.0490135E-2,1.486315E3,2.55E1,1.55E1,1.395905E3,3.5E0,1.5E1,4.55E1,2E0,1.56198E3,5.5E0,1.699865E3,1.9485E1,2.05E1,5.949631E2,1.45E1,1.35E1,2.15E1,-2.0128463E-1,1.1E1,5.5E0,1.5E0,2.35E1,3.4E1,9.200139E1,2.5985E1,5.45E1,5.397157E2,-1.7403556E-1,2.15E1,-1.8994397E-1,1.83388E3,1.5E0,1.65981E3,1.85E1,5.1549997E0,2.7013683E-1,6.5E0,1.9064999E1,2.06435E3,2.25E1,2.711E1,2.9974998E1,1.467E3,1.709E1,6.5E0,6.5194264E-2,2.4612945E-1,4.112661E-2,1.1599756E-1,2.1725027E-1,-1.3429472E-1,-1.3872102E-1,-9.713793E-2,4.7270164E-2,-1.2915918E-1,2.4115647E-1,1.3964178E-1,2.7861822E-2,1.8383205E-1,2.5317335E-1,1.0265569E-1,2.605326E-1,-5.686966E-3,7.26491E-2,-4.4295605E-2,2.2939488E-1,-2.084139E-2,1.3833831E-1,-1.2950483E-1,2.0887537E-1,6.1472747E-2,2.644323E-1,-1.5884799E-1,2.1582837E-1,-1.3198593E-2,1.0512198E-1,2.3036915E-1,2.543888E-1,2.3514949E-1,3.0539172E-2,-1.5679753E-1,3.4261122E-2,-1.7979485E-1,5.268504E-2,2.3966947E-1,1.3951232E-1,2.548768E-1,2.4965659E-1,-1.749043E-1,9.328385E-2,-1.9635879E-1,-1.3435541E-1,2.5998265E-1,1.2250178E-1,-1.2472597E-1,2.0187631E-1,2.6872918E-1],"split_indices":[6,7,4,8,0,7,6,0,5,0,6,2,0,7,8,0,6,3,3,6,1,2,3,5,6,1,6,4,7,0,7,2,2,0,7,5,8,2,3,0,4,3,0,0,2,0,6,7,6,7,4,0,5,4,6,3,4,4,0,4,1,0,0,0,0,0,0,0,0,0,0,0,0,0,0,0,0,0,0,0,0,0,0,0,0,0,0,0,0,0,0,0,0,0,0,0,0,0,0,0,0,0,0,0,0,0,0,0,0,0,0,0,0],"split_type":[0,0,0,0,0,0,0,0,0,0,0,0,0,0,0,0,0,0,0,0,0,0,0,0,0,0,0,0,0,0,0,0,0,0,0,0,0,0,0,0,0,0,0,0,0,0,0,0,0,0,0,0,0,0,0,0,0,0,0,0,0,0,0,0,0,0,0,0,0,0,0,0,0,0,0,0,0,0,0,0,0,0,0,0,0,0,0,0,0,0,0,0,0,0,0,0,0,0,0,0,0,0,0,0,0,0,0,0,0,0,0,0,0],"sum_hessian":[4.33647E4,2.829126E4,1.507344E4,2.7196852E4,1.0944089E3,8.396341E3,6.677099E3,3.4311703E2,2.6853734E4,1.0478759E3,4.6533108E1,4.3601166E2,7.9603296E3,1.9883708E3,4.6887285E3,3.150985E0,3.3996606E2,2.6414004E3,2.4212334E4,8.841266E1,9.5946313E2,4.2120052E1,4.413056E0,1.2592838E2,3.1008325E2,7.9303677E3,2.9961857E1,2.3357133E2,1.7547996E3,4.3919043E3,2.9682404E2,3.364461E2,3.5199518E0,2.637701E3,3.6995025E0,1.5397265E4,8.815069E3,6.083313E1,2.7579527E1,4.986775E1,9.095954E2,6.149238E0,3.5970814E1,1.8357201E0,2.577336E0,1.3984512E1,1.1194387E2,5.6664593E1,2.5341866E2,8.371779E2,7.09319E3,5.3199716E0,2.4641886E1,1.7951901E2,5.4052322E1,6.091769E2,1.1456227E3,4.3583013E3,3.3603268E1,5.170334E1,2.4512068E2,1.996322E0,3.344498E2,2.0657208E0,1.4542309E0,1.9144984E0,1.785004E0,1.0588793E4,4.808472E3,2.6232175E3,6.1918516E3,5.4230656E1,6.6024747E0,8.821481E0,1.8758047E1,2.90207E1,2.0847048E1,9.081527E2,1.4426738E0,3.9806073E0,2.1686306E0,3.4132782E1,1.8380334E0,1.4027377E0,1.1745983E0,6.329954E1,4.8644333E1,2.3585916E0,5.4306004E1,2.4832155E1,2.285865E2,2.151205E2,6.2205743E2,2.3988862E3,4.6943037E3,9.241522E0,1.5400364E1,1.6730737E2,1.2211635E1,2.4038263E1,3.001406E1,2.9837817E2,3.1079874E2,1.1434902E3,2.1323895E0,4.3475083E3,1.079284E1,3.195722E1,1.6460484E0,2.9051804E1,2.2651537E1,9.6324326E1,1.4879636E2],"tree_param":{"num_deleted":"0","num_feature":"9","num_nodes":"113","size_leaf_vector":"0"}},{"base_weights":[4.3202513E-3,-2.4350937E-1,3.80652E-1,-3.1791434E-1,8.7937E-2,5.673452E-1,-2.0655724E-1,-4.6934128E-1,-2.9597503E-1,-3.4436384E-1,1.4091928E-1,5.9914863E-1,-3.643821E-1,2.7405873E-1,-3.0133954E-1,-4.7033957E-1,2.4632694E-1,-2.5094104E-1,-3.7454537E-1,-1.6343628E-1,-3.9292353E-1,8.6890645E-2,1.9405703E-1,6.1742896E-1,-1.3521315E-1,-3.7816253E-1,4.908126E-1,8.069627E-2,3.4609145E-1,-1.744982E-1,-3.7748933E-1,-4.5826504E-1,-5.3347784E-1,-2.8890136E-1,-1.5471928E-1,-3.7734547E-1,1.665391E-2,-3.959041E-1,1.7958829E-3,-4.5319223E-1,-3.4011284E-1,2.0800684E-1,5.9406757E-2,1.1289348E-1,2.7057862E-1,6.2352604E-1,-4.283999E-1,-2.0773767E-1,1.8843172E-1,-2.0165746E-1,-4.1457626E-1,2.53341E-1,6.2751216E-1,-1.1062351E-1,4.55182E-1,5.577231E-1,2.6367068E-1,-1.9474398E-2,-2.658106E-1,-3.8033208E-1,4.8704636E-1,-4.2656535E-1,-4.7766104E-1,-3.2142794E-1,-5.4941684E-1,-2.7772713E-1,-3.6768767E-1,-1.1088479E-1,-4.1181123E-1,-4.2667088E-1,-3.5859194E-1,-4.0654176E-1,5.670937E-1,-1.0301381E-1,-4.9005222E-1,4.6832106E-1,-8.911732E-2,-3.634326E-1,-5.7813686E-1,-3.479002E-1,3.444582E-1,2.808319E-1,-4.9164772E-1,-2.7154362E-1,7.350975E-2,-8.1593795E-3,2.3305838E-1,9.5715743E-1,2.534081E-1,6.390897E-1,3.730961E-1,8.9899117E-1,-5.0414306E-1,2.5458315E-1,-2.3831353E-1,6.2991065E-1,-1.5851845E-1,-3.528251E-1,6.831376E-2,3.9112815E-3,-4.2195964E-1,4.4816174E-3,3.9865792E-1,1.6658397E-1,7.509023E-1,-3.4017584E-1,-3.099251E-4,-5.877194E-1,5.8656794E-1,7.213426E-1,4.045633E-1,1.9889542E-1,5.100443E-1,1.0905223E0,-6.253079E-2,-2.7524638E-1,5.697787E-1,-1.5249029E-1,-3.8401875E-1,6.000055E-1,3.271291E-2],"categories":[],"categories_nodes":[],"categories_segments":[],"categories_sizes":[],"default_left":[1,1,1,1,1,1,1,1,1,1,1,1,1,1,1,1,0,1,1,1,1,1,1,1,1,1,1,1,1,1,1,1,1,1,1,1,1,1,1,1,1,1,1,1,1,1,1,1,1,1,1,1,1,1,1,1,1,1,1,1,1,0,0,0,0,0,0,0,0,0,0,0,0,0,0,0,0,0,0,0,0,0,0,0,0,0,0,0,0,0,0,0,0,0,0,0,0,0,0,0,0,0,0,0,0,0,0,0,0,0,0,0,0,0,0,0,0,0,0,0,0],"id":5,"left_children":[1,3,5,7,9,11,13,15,17,19,21,23,25,27,29,31,-1,33,35,37,39,41,43,45,47,49,51,53,55,57,59,61,63,65,67,69,71,73,75,77,79,81,83,85,87,89,91,93,95,97,99,101,103,105,107,109,111,113,115,117,119,-1,-1,-1,-1,-1,-1,-1,-1,-1,-1,-1,-1,-1,-1,-1,-1,-1,-1,-1,-1,-1,-1,-1,-1,-1,-1,-1,-1,-1,-1,-1,-1,-1,-1,-1,-1,-1,-1,-1,-1,-1,-1,-1,-1,-1,-1,-1,-1,-1,-1,-1,-1,-1,-1,-1,-1,-1,-1,-1,-1],"loss_changes":[4.0659011E3,6.482477E2,1.8977422E3,7.117651E1,1.1043842E2,3.8941357E2,1.9033624E2,2.055481E0,6.625867E1,4.56139E0,1.2311424E1,1.705874E2,5.3020096E0,9.561638E0,3.363379E1,1.8225708E0,0E0,4.3506165E1,7.488159E0,4.3456783E0,1.1647301E0,7.0812874E0,1.3410179E1,7.928955E1,7.2992473E0,2.6661224E0,7.864916E-2,1.3532185E1,8.59734E0,1.8548622E1,5.5411377E0,1.2000732E0,1.2740021E0,7.4241943E0,3.7991753E1,6.1202393E0,1.1761137E1,1.2455816E0,2.8883471E0,1.9264832E0,1.3185501E0,2.0199963E1,8.133234E0,1.530336E1,1.2880737E1,4.7785156E1,7.7346573E0,3.6392918E0,8.853188E0,3.0895963E0,1.0945663E0,1.555736E-1,1.00623965E-1,3.1740544E0,9.089964E0,3.2070084E0,5.686825E0,2.3339937E1,6.6596756E0,1.766449E0,3.694291E-1,0E0,0E0,0E0,0E0,0E0,0E0,0E0,0E0,0E0,0E0,0E0,0E0,0E0,0E0,0E0,0E0,0E0,0E0,0E0,0E0,0E0,0E0,0E0,0E0,0E0,0E0,0E0,0E0,0E0,0E0,0E0,0E0,0E0,0E0,0E0,0E0,0E0,0E0,0E0,0E0,0E0,0E0,0E0,0E0,0E0,0E0,0E0,0E0,0E0,0E0,0E0,0E0,0E0,0E0,0E0,0E0,0E0,0E0,0E0,0E0],"parents":[2147483647,0,0,1,1,2,2,3,3,4,4,5,5,6,6,7,7,8,8,9,9,10,10,11,11,12,12,13,13,14,14,15,15,17,17,18,18,19,19,20,20,21,21,22,22,23,23,24,24,25,25,26,26,27,27,28,28,29,29,30,30,31,31,32,32,33,33,34,34,35,35,36,36,37,37,38,38,39,39,40,40,41,41,42,42,43,43,44,44,45,45,46,46,47,47,48,48,49,49,50,50,51,51,52,52,53,53,54,54,55,55,56,56,57,57,58,58,59,59,60,60],"right_children":[2,4,6,8,10,12,14,16,18,20,22,24,26,28,30,32,-1,34,36,38,40,42,44,46,48,50,52,54,56,58,60,62,64,66,68,70,72,74,76,78,80,82,84,86,88,90,92,94,96,98,100,102,104,106,108,110,112,114,116,118,120,-1,-1,-1,-1,-1,-1,-1,-1,-1,-1,-1,-1,-1,-1,-1,-1,-1,-1,-1,-1,-1,-1,-1,-1,-1,-1,-1,-1,-1,-1,-1,-1,-1,-1,-1,-1,-1,-1,-1,-1,-1,-1,-1,-1,-1,-1,-1,-1,-1,-1,-1,-1,-1,-1,-1,-1,-1,-1,-1,-1],"split_conditions":[1.5E0,1.498E1,1.48553E3,2.5E0,2.502E3,2.05E1,1.45E1,1.4973201E3,1.25E1,1.15E1,2.45E1,4.735533E2,3.3476453E2,1.05E1,2.05E1,1.253595E3,7.3898084E-2,5.5E0,5.582364E2,3.5E0,2.05E1,2.96253E3,1.02811195E2,7.5E0,1.2021951E3,4.5E0,1.15E1,1.15E1,1.35E1,5.5E0,6.3807983E2,3.477443E1,5E-1,1.55E1,1.75E1,1.33654E3,1.3130801E3,1.574E1,2.5E0,1.85E1,3.5036536E2,3.348623E2,3.05843E3,7.5E0,1.0831369E2,2.6319812E2,6.5E0,7.5E0,6.8283264E2,1.05801735E2,8.541835E0,5.55E1,4.55E1,1.77802E3,1.38893585E1,1.2045E1,2.45E1,1.499615E3,4.153357E2,1.0622984E1,1.6395E1,-1.2796961E-1,-1.4329831E-1,-9.642839E-2,-1.6482505E-1,-8.3318144E-2,-1.1030631E-1,-3.3265438E-2,-1.23543374E-1,-1.2800127E-1,-1.07577585E-1,-1.2196253E-1,1.701281E-1,-3.0904146E-2,-1.4701568E-1,1.4049633E-1,-2.6735196E-2,-1.0902978E-1,-1.7344107E-1,-1.04370065E-1,1.0333746E-1,8.424957E-2,-1.4749432E-1,-8.146309E-2,2.2052927E-2,-2.447814E-3,6.9917515E-2,2.8714725E-1,7.602243E-2,1.9172692E-1,1.11928836E-1,2.6969737E-1,-1.5124293E-1,7.637495E-2,-7.149406E-2,1.889732E-1,-4.7555536E-2,-1.0584754E-1,2.049413E-2,1.1733845E-3,-1.265879E-1,1.3444852E-3,1.1959738E-1,4.9975194E-2,2.252707E-1,-1.02052756E-1,-9.2977534E-5,-1.7631581E-1,1.7597039E-1,2.164028E-1,1.21369E-1,5.966863E-2,1.5301329E-1,3.271567E-1,-1.875924E-2,-8.257392E-2,1.709336E-1,-4.5747086E-2,-1.1520563E-1,1.8000166E-1,9.813873E-3],"split_indices":[8,4,6,5,6,7,7,6,2,3,7,0,0,2,7,6,0,5,0,5,7,6,0,5,6,1,2,7,2,1,0,0,2,3,3,6,6,4,2,2,0,0,6,5,0,0,7,3,0,0,0,3,3,6,0,4,3,6,0,0,4,0,0,0,0,0,0,0,0,0,0,0,0,0,0,0,0,0,0,0,0,0,0,0,0,0,0,0,0,0,0,0,0,0,0,0,0,0,0,0,0,0,0,0,0,0,0,0,0,0,0,0,0,0,0,0,0,0,0,0,0],"split_type":[0,0,0,0,0,0,0,0,0,0,0,0,0,0,0,0,0,0,0,0,0,0,0,0,0,0,0,0,0,0,0,0,0,0,0,0,0,0,0,0,0,0,0,0,0,0,0,0,0,0,0,0,0,0,0,0,0,0,0,0,0,0,0,0,0,0,0,0,0,0,0,0,0,0,0,0,0,0,0,0,0,0,0,0,0,0,0,0,0,0,0,0,0,0,0,0,0,0,0,0,0,0,0,0,0,0,0,0,0,0,0,0,0,0,0,0,0,0,0,0,0],"sum_hessian":[4.3592613E4,2.6283938E4,1.7308678E4,2.146532E4,4.818617E3,1.3133226E4,4.1754526E3,2.7138315E3,1.8751488E4,5.2548706E2,4.2931304E3,1.270008E4,4.3314575E2,6.874886E2,3.4879639E3,2.7103936E3,3.4379992E0,1.1922236E4,6.8292515E3,1.1211731E2,4.1336975E2,2.130027E3,2.163103E3,1.2391773E4,3.083066E2,4.2682574E2,6.3199964E0,1.8717145E2,5.003171E2,1.3097041E3,2.1782598E3,2.2822034E3,4.2819012E2,8.547981E3,3.3742546E3,6.780752E3,4.8499466E1,4.6001293E1,6.611602E1,1.8951256E2,2.2385718E2,3.9273804E2,1.7372891E3,1.0509138E3,1.1121893E3,1.2320351E4,7.1422676E1,2.5215921E2,5.6147392E1,7.411456E1,3.5271118E2,3.3513575E0,2.968639E0,1.24348206E2,6.282325E1,1.3861888E2,3.6169824E2,4.859335E2,8.237706E2,2.171679E3,6.580838E0,8.7505676E2,1.4071465E3,3.1415075E1,3.9677505E2,7.490179E3,1.0578026E3,2.8839663E3,4.9028833E2,1.861883E3,4.918869E3,2.7566717E1,2.0932749E1,1.1699351E1,3.4301945E1,1.010589E1,5.6010128E1,1.12559265E2,7.695329E1,2.2182559E2,2.031586E0,3.5625507E2,3.6482967E1,7.026024E1,1.6670288E3,5.2398694E2,5.269268E2,2.5800198E1,1.0863892E3,1.159801E4,7.2234106E2,3.2687776E0,6.815389E1,1.5187719E1,2.369715E2,2.4348906E1,3.1798487E1,4.731443E1,2.680013E1,6.123149E0,3.4658804E2,1.6155399E0,1.7358177E0,1.1231459E0,1.8454931E0,3.9684574E1,8.466363E1,6.6404185E0,5.618283E1,6.52273E1,7.339158E1,2.878306E2,7.3867645E1,1.7236914E1,4.686966E2,8.152353E2,8.535334E0,3.5254547E1,2.1364243E3,5.013679E0,1.5671592E0],"tree_param":{"num_deleted":"0","num_feature":"9","num_nodes":"121","size_leaf_vector":"0"}},{"base_weights":[-6.1198543E-3,2.826447E-1,-4.5380953E-1,4.227032E-1,-2.3528968E-1,-2.1044812E-1,-5.411633E-1,6.851376E-1,3.6786345E-1,-2.678904E-1,4.6006802E-1,-2.6526076E-1,2.972285E-1,-5.487986E-1,-6.1253875E-2,6.8559134E-1,1.953384E-1,4.0011433E-1,6.790874E-2,-2.4684066E-1,-3.8654852E-1,3.3518517E-1,6.62449E-1,-2.4804062E-1,-3.952397E-1,1.7537653E-1,5.3700346E-1,-4.227127E-1,-5.7068866E-1,1.3747548E0,-1.459805E-1,6.8146884E-1,7.6039946E-1,4.5076683E-1,2.6455343E-1,-6.702938E-1,2.566471E-1,-2.7683645E-1,-1.3133526E-1,-4.2439705E-1,-2.5814885E-1,5.2259976E-1,6.416708E-3,7.81122E-1,3.8042268E-1,-2.5142753E-1,5.7537925E-1,-4.2540932E-1,5.690833E-1,2.7886412E-1,-1.9239075E-1,7.596906E-1,3.6718372E-1,-2.502327E-1,-5.1255184E-1,-6.101208E-1,-5.188551E-1,1.5990089E0,5.323863E-1,-6.26832E-1,2.6853837E-2,6.2642187E-1,6.8538314E-1,4.147069E-1,7.6933295E-1,4.394032E-1,6.373134E-1,2.4375147E-1,7.840742E-1,-6.7612886E-1,2.1209216E-1,-4.8174194E-1,3.530331E-1,-2.6311356E-1,-4.566353E-1,-2.6993498E-1,9.2434175E-3,-5.1052237E-1,-2.8968993E-1,1.4523618E-1,-3.9827693E-1,3.8173527E-2,6.099507E-1,2.2671682E-1,-7.532839E-1,6.489109E-1,8.605524E-1,6.2914276E-1,-1.4956392E-1,-3.4209493E-1,-2.2325198E-1,-4.4644952E-1,7.8779316E-1,-3.4538925E-1,-6.116669E-1,8.0834115E-1,-4.7506955E-1,-9.850246E-2,4.3400902E-1,-3.7345046E-1,7.909348E-1,2.1375495E-1,7.857788E-1,4.489305E-1,-4.4660187E-1,-6.210639E-1,-1.9461714E-1,-5.327385E-1,-7.710747E-2,-5.6108564E-1,-6.2058824E-1,-5.8809555E-1,-4.8424208E-1,-2.4332531E-1,2.0565473E-1],"categories":[],"categories_nodes":[],"categories_segments":[],"categories_sizes":[],"default_left":[1,1,1,1,1,1,1,1,1,1,1,1,1,1,1,1,0,1,1,1,1,1,1,1,1,1,1,1,1,1,1,1,1,1,1,1,1,1,1,1,1,1,1,1,1,1,1,1,1,1,1,1,1,1,1,1,1,0,0,0,1,0,0,0,0,0,0,0,0,0,0,0,0,0,0,0,0,0,0,0,0,0,0,0,0,0,0,0,0,0,0,0,0,0,0,0,0,0,0,0,0,0,0,0,0,0,0,0,0,0,0,0,0,0,0],"id":6,"left_children":[1,3,5,7,9,11,13,15,17,19,21,23,25,27,29,31,-1,33,35,37,39,41,43,45,47,49,51,53,55,57,59,61,63,65,67,69,71,73,75,77,79,81,83,85,87,89,91,93,95,97,99,101,103,105,107,109,111,-1,-1,-1,113,-1,-1,-1,-1,-1,-1,-1,-1,-1,-1,-1,-1,-1,-1,-1,-1,-1,-1,-1,-1,-1,-1,-1,-1,-1,-1,-1,-1,-1,-1,-1,-1,-1,-1,-1,-1,-1,-1,-1,-1,-1,-1,-1,-1,-1,-1,-1,-1,-1,-1,-1,-1,-1,-1],"loss_changes":[5.3006963E3,1.8082214E3,3.4166357E2,2.8212012E2,1.2041058E2,1.1829384E2,4.3314697E1,6.1950684E-1,1.569895E2,1.2566071E1,5.793152E0,8.485107E0,1.2014645E1,3.1898193E1,2.2878696E1,5.262451E-1,0E0,1.005105E2,2.1988269E2,1.4890167E1,3.5936127E0,9.190012E0,2.70821E0,9.595642E0,1.3244591E1,1.0568686E1,4.9837685E0,2.6623718E1,1.9957275E1,1.1285629E0,1.471954E1,2.6428223E-1,2.0053864E-1,2.2333008E1,4.291635E1,1.7980499E0,8.96011E1,8.316101E0,1.7344566E1,6.662018E0,1.0008271E1,3.9974556E0,9.406687E0,9.532547E-2,3.8566895E0,8.547043E0,3.4308E0,6.2563095E0,3.8780222E0,1.2689795E1,1.1202648E1,6.7625046E-1,5.58162E0,1.2113796E1,9.928833E0,2.5402832E0,1.0002319E1,0E0,0E0,0E0,6.38302E0,0E0,0E0,0E0,0E0,0E0,0E0,0E0,0E0,0E0,0E0,0E0,0E0,0E0,0E0,0E0,0E0,0E0,0E0,0E0,0E0,0E0,0E0,0E0,0E0,0E0,0E0,0E0,0E0,0E0,0E0,0E0,0E0,0E0,0E0,0E0,0E0,0E0,0E0,0E0,0E0,0E0,0E0,0E0,0E0,0E0,0E0,0E0,0E0,0E0,0E0,0E0,0E0,0E0,0E0],"parents":[2147483647,0,0,1,1,2,2,3,3,4,4,5,5,6,6,7,7,8,8,9,9,10,10,11,11,12,12,13,13,14,14,15,15,17,17,18,18,19,19,20,20,21,21,22,22,23,23,24,24,25,25,26,26,27,27,28,28,29,29,30,30,31,31,32,32,33,33,34,34,35,35,36,36,37,37,38,38,39,39,40,40,41,41,42,42,43,43,44,44,45,45,46,46,47,47,48,48,49,49,50,50,51,51,52,52,53,53,54,54,55,55,56,56,60,60],"right_children":[2,4,6,8,10,12,14,16,18,20,22,24,26,28,30,32,-1,34,36,38,40,42,44,46,48,50,52,54,56,58,60,62,64,66,68,70,72,74,76,78,80,82,84,86,88,90,92,94,96,98,100,102,104,106,108,110,112,-1,-1,-1,114,-1,-1,-1,-1,-1,-1,-1,-1,-1,-1,-1,-1,-1,-1,-1,-1,-1,-1,-1,-1,-1,-1,-1,-1,-1,-1,-1,-1,-1,-1,-1,-1,-1,-1,-1,-1,-1,-1,-1,-1,-1,-1,-1,-1,-1,-1,-1,-1,-1,-1,-1,-1,-1,-1],"split_conditions":[1.25E1,1.5E0,1.26461E3,2.5E0,4.0766382E2,2.8341583E2,4.535545E2,1.4973201E3,2.05E1,1.37833E3,7.4051746E2,2.75E1,4.9159595E2,1.65E1,4.5873267E2,1.448975E3,5.860152E-2,5.5E0,2.5E0,1.4724216E2,6.5E0,7.70205E2,1.01638635E3,1.263065E3,2.54207E2,8.56485E2,7.715E0,1.49829E3,1.5255E1,8E0,5.044997E2,1.41E0,1.5E0,1.45E1,7.5E0,7.203668E2,7.5E0,1.14157745E2,1.85E1,7.811467E1,2.4544918E1,4.447969E2,5.5E0,1.85E1,1.2184999E1,1.05E1,1.05E1,6.5E0,2.644079E2,3.05185E2,1.24554E3,7.5415E1,1.07343E3,1E0,2.667E1,1.500005E3,2.613405E3,4.7970268E-1,1.5971589E-1,-1.8804961E-1,1.61E1,1.8792658E-1,2.0561495E-1,1.2441207E-1,2.307999E-1,1.3182096E-1,1.9119404E-1,7.3125444E-2,2.3522227E-1,-2.0283867E-1,6.362765E-2,-1.4452259E-1,1.05909936E-1,-7.893407E-2,-1.3699059E-1,-8.0980495E-2,2.7730253E-3,-1.5315671E-1,-8.6906984E-2,4.3570854E-2,-1.1948308E-1,1.1452058E-2,1.8298522E-1,6.801505E-2,-2.2598518E-1,1.9467327E-1,2.5816572E-1,1.8874283E-1,-4.4869177E-2,-1.02628484E-1,-6.69756E-2,-1.3393486E-1,2.3633796E-1,-1.0361678E-1,-1.8350008E-1,2.4250235E-1,-1.4252087E-1,-2.9550739E-2,1.3020271E-1,-1.1203514E-1,2.3728044E-1,6.412649E-2,2.3573366E-1,1.3467915E-1,-1.3398057E-1,-1.8631917E-1,-5.8385145E-2,-1.5982156E-1,-2.313224E-2,-1.6832569E-1,-1.8617648E-1,-1.7642868E-1,-1.4527263E-1,-7.299759E-2,6.169642E-2],"split_indices":[7,8,6,5,0,0,0,6,3,6,0,3,0,7,0,6,0,5,1,0,5,6,0,6,0,6,4,6,4,1,0,4,7,2,1,0,2,0,3,0,0,0,5,3,4,2,2,1,0,6,6,6,6,8,4,6,6,0,0,0,4,0,0,0,0,0,0,0,0,0,0,0,0,0,0,0,0,0,0,0,0,0,0,0,0,0,0,0,0,0,0,0,0,0,0,0,0,0,0,0,0,0,0,0,0,0,0,0,0,0,0,0,0,0,0],"split_type":[0,0,0,0,0,0,0,0,0,0,0,0,0,0,0,0,0,0,0,0,0,0,0,0,0,0,0,0,0,0,0,0,0,0,0,0,0,0,0,0,0,0,0,0,0,0,0,0,0,0,0,0,0,0,0,0,0,0,0,0,0,0,0,0,0,0,0,0,0,0,0,0,0,0,0,0,0,0,0,0,0,0,0,0,0,0,0,0,0,0,0,0,0,0,0,0,0,0,0,0,0,0,0,0,0,0,0,0,0,0,0,0,0,0,0],"sum_hessian":[4.100066E4,2.4924479E4,1.6076183E4,1.961927E4,5.30521E3,4.2471978E3,1.1828984E4,3.3891375E3,1.6230132E4,5.0682095E3,2.3700006E2,3.8337542E3,4.1344382E2,1.1643592E4,1.8539227E2,3.3856016E3,3.5358305E0,1.4654191E4,1.575941E3,4.3072E3,7.610094E2,1.482042E2,8.8795876E1,3.3878293E3,4.4592477E2,2.7527994E2,1.381639E2,1.7254381E3,9.918154E3,9.480701E0,1.7591158E2,3.2183555E3,1.6724602E2,1.0666366E4,3.987825E3,3.203645E2,1.2555765E3,3.4181406E3,8.8905963E2,5.859753E2,1.7503409E2,9.4019035E1,5.4185158E1,6.1252106E1,2.7543772E1,3.3746433E3,1.3186045E1,4.3293878E2,1.2985985E1,2.1501709E2,6.026283E1,5.8274345E1,7.988954E1,5.9222504E2,1.133213E3,5.626816E3,4.291338E3,6.778033E0,2.7026684E0,4.5816452E1,1.3009512E2,2.2434854E2,2.994007E3,5.4077663E0,1.6183826E2,1.0057088E4,6.092781E2,3.8357097E3,1.521153E2,3.1849213E2,1.872396E0,1.4451158E2,1.111065E3,3.178044E3,2.4009662E2,4.4721753E2,4.418421E2,3.5574136E2,2.3023393E2,4.511774E1,1.2991635E2,1.4582912E1,7.943612E1,4.254842E1,1.1636738E1,2.6429676E1,3.482243E1,1.8618916E1,8.924856E0,7.9742645E2,2.5772168E3,2.0797071E0,1.1106338E1,3.048314E2,1.2810739E2,1.0748831E1,2.237154E0,6.2750656E1,1.5226643E2,5.1415848E1,8.846983E0,3.0769992E0,5.519735E1,7.300441E1,6.8851333E0,7.590979E1,5.1631525E2,1.0827926E3,5.0420372E1,9.994519E2,4.6273643E3,1.4249172E3,2.866421E3,5.1665104E1,7.843002E1],"tree_param":{"num_deleted":"0","num_feature":"9","num_nodes":"115","size_leaf_vector":"0"}},{"base_weights":[-3.1323663E-3,-2.7786356E-1,4.606702E-1,-3.1753615E-1,6.37194E-1,5.649949E-1,3.3290485E-1,6.139357E-1,-3.3029482E-1,6.4702594E-1,4.0926573E-1,1.732566E-2,5.9926856E-1,5.2711856E-1,2.4506667E-1,1.1902419E-1,6.1844474E-1,-6.194333E-1,-3.0172226E-1,5.052405E-1,6.599585E-1,4.835381E-1,-2.8331813E-1,-1.2956557E-1,2.105148E-1,6.028877E-1,1.0747263E-1,1.1709819E-1,5.812905E-1,2.2824343E-1,5.397473E-1,1.4084452E-1,6.2101793E-1,-6.208834E-1,2.0063421E-1,-3.0494824E-1,1.5345056E0,5.874397E-1,3.1352597E-1,5.2349687E-1,6.7111284E-1,6.617931E-2,5.520547E-1,1.4809585E-2,-5.419798E-1,-3.263072E-1,5.217835E-2,1.2854242E-1,8.076441E-1,3.1075883E-1,6.071391E-1,4.2638844E-1,-1.014871E-1,2.2708504E-2,4.2960992E-1,4.9299124E-1,6.289915E-1,2.4795505E-1,7.306732E-2,-4.4099886E-2,5.8674586E-1,5.787055E-1,6.6909075E-1,6.5876627E-1,-4.0622365E-1,-3.549553E-1,-2.1975794E-1,4.668971E-1,6.6722417E-1,4.1434702E-1,-7.14079E-2,-2.6535857E-1,5.598462E-1,6.256278E-1,7.035661E-1,3.060329E-1,-6.433529E-2,5.843696E-1,-5.046864E-2,-5.413165E-1,-1.8103192E-2,4.5612207E-1,-7.668256E-2,2.8296778E-1,-6.3569826E-1,9.3733037E-1,-4.6834812E-1,-7.0356995E-1,4.6881208E-1,5.482665E-1,6.2285554E-1,6.842317E-1,-1.8137509E-1,1.8518274E-1,-4.729296E-1,4.6776995E-1,-4.291925E-2,5.7034814E-1,-1.2508073E-1,3.1036463E-1,6.1509824E-1,6.313492E-1,-5.949263E-1,2.8406974E-2,2.6018962E-1,-3.29455E-1,1.8003304E-1,1.1322671E0,-3.766127E-1,-6.52968E-1,5.993573E-1],"categories":[],"categories_nodes":[],"categories_segments":[],"categories_sizes":[],"default_left":[1,1,1,1,1,1,1,1,1,1,1,1,1,1,1,0,1,1,1,1,1,1,1,1,1,1,1,1,1,1,1,0,1,0,1,1,0,1,1,1,1,1,1,0,0,1,1,1,1,1,1,1,1,1,1,1,1,1,1,1,1,0,0,0,0,0,0,0,0,0,0,0,0,0,0,0,0,0,0,0,0,0,0,0,0,0,0,0,0,0,0,0,0,0,0,0,0,0,0,0,0,0,0,0,0,0,0,0,0,0,0],"id":7,"left_children":[1,3,5,7,9,11,13,15,17,19,21,23,25,27,29,-1,31,33,35,37,39,41,43,45,47,49,51,53,55,57,59,-1,61,-1,63,65,-1,67,69,71,73,75,77,-1,-1,79,81,83,85,87,89,91,93,95,97,99,101,103,105,107,109,-1,-1,-1,-1,-1,-1,-1,-1,-1,-1,-1,-1,-1,-1,-1,-1,-1,-1,-1,-1,-1,-1,-1,-1,-1,-1,-1,-1,-1,-1,-1,-1,-1,-1,-1,-1,-1,-1,-1,-1,-1,-1,-1,-1,-1,-1,-1,-1,-1,-1],"loss_changes":[5.228051E3,9.3560876E2,2.0325171E2,2.9370825E2,2.135376E0,1.5767773E2,1.1695117E2,6.7185974E-1,2.0109253E2,1.5461121E0,2.5552692E0,1.4096858E1,1.4006592E1,4.7386536E1,2.3313965E1,0E0,3.1908417E-1,2.729126E0,1.3182202E2,1.2332497E0,1.0735168E0,1.1881723E0,4.0776905E-1,1.0109867E1,1.0397042E1,9.55835E0,3.9731586E0,7.3819013E0,7.637451E0,1.3666962E1,7.0118256E0,0E0,2.8147125E-1,0E0,1.552577E0,9.422632E1,0E0,2.8291702E-1,1.160357E0,2.307167E0,8.319702E-1,2.4431852E-1,7.431288E-1,0E0,0E0,8.981137E0,7.7172666E0,2.2582603E1,4.6927986E0,1.8706127E1,6.8146973E0,3.8123913E0,3.967257E0,5.6721992E0,4.604821E0,1.467067E1,3.9003296E0,1.0654602E1,2.183224E1,8.2093935E0,4.076332E0,0E0,0E0,0E0,0E0,0E0,0E0,0E0,0E0,0E0,0E0,0E0,0E0,0E0,0E0,0E0,0E0,0E0,0E0,0E0,0E0,0E0,0E0,0E0,0E0,0E0,0E0,0E0,0E0,0E0,0E0,0E0,0E0,0E0,0E0,0E0,0E0,0E0,0E0,0E0,0E0,0E0,0E0,0E0,0E0,0E0,0E0,0E0,0E0,0E0,0E0],"parents":[2147483647,0,0,1,1,2,2,3,3,4,4,5,5,6,6,7,7,8,8,9,9,10,10,11,11,12,12,13,13,14,14,16,16,17,17,18,18,19,19,20,20,21,21,22,22,23,23,24,24,25,25,26,26,27,27,28,28,29,29,30,30,32,32,34,34,35,35,37,37,38,38,39,39,40,40,41,41,42,42,45,45,46,46,47,47,48,48,49,49,50,50,51,51,52,52,53,53,54,54,55,55,56,56,57,57,58,58,59,59,60,60],"right_children":[2,4,6,8,10,12,14,16,18,20,22,24,26,28,30,-1,32,34,36,38,40,42,44,46,48,50,52,54,56,58,60,-1,62,-1,64,66,-1,68,70,72,74,76,78,-1,-1,80,82,84,86,88,90,92,94,96,98,100,102,104,106,108,110,-1,-1,-1,-1,-1,-1,-1,-1,-1,-1,-1,-1,-1,-1,-1,-1,-1,-1,-1,-1,-1,-1,-1,-1,-1,-1,-1,-1,-1,-1,-1,-1,-1,-1,-1,-1,-1,-1,-1,-1,-1,-1,-1,-1,-1,-1,-1,-1,-1,-1],"split_conditions":[1.48553E3,2.05E1,1.4855E1,5E-1,2.925891E2,1.45E1,2.5448E3,1.5331748E1,2.5E0,2.1018715E1,1.470875E3,5.5E0,4.5486374E2,1.45E1,1E0,3.5707258E-2,1.35E1,2.55E1,3.55E1,1.395905E3,4.5E0,1.5E1,2.1E1,9.665E0,2.623885E2,1.500005E3,3.9250002E0,1.9485E1,2.05E1,2.979544E2,9E0,4.225336E-2,3.85E1,-1.8626502E-1,1.1E1,1.55E1,4.603517E-1,1.209E1,1.9208454E1,2.15E1,2.65E1,1.5440001E1,5.397157E2,4.4428757E-3,-1.6259395E-1,5.902256E1,9.5E0,1.4713087E2,2.519795E3,4.5E0,1.85E1,5.456012E2,7.5E0,5.5E0,1.6377214E2,1.95E1,2.9595001E1,2.668205E3,3.2489194E2,1.05E1,1.5025E1,1.7361166E-1,2.0072724E-1,1.9762988E-1,-1.218671E-1,-1.0648659E-1,-6.592739E-2,1.4006914E-1,2.0016725E-1,1.2430411E-1,-2.1422371E-2,-7.9607576E-2,1.6795388E-1,1.8768835E-1,2.1106984E-1,9.180987E-2,-1.9300587E-2,1.7531088E-1,-1.5140592E-2,-1.6239496E-1,-5.430958E-3,1.3683663E-1,-2.3004768E-2,8.4890336E-2,-1.9070949E-1,2.8119913E-1,-1.4050443E-1,-2.11071E-1,1.4064363E-1,1.6447994E-1,1.8685667E-1,2.0526952E-1,-5.441253E-2,5.5554822E-2,-1.4187889E-1,1.4033099E-1,-1.2875775E-2,1.7110445E-1,-3.7524223E-2,9.310939E-2,1.8452948E-1,1.8940477E-1,-1.784779E-1,8.522092E-3,7.805689E-2,-9.8836504E-2,5.4009914E-2,3.3968014E-1,-1.12983815E-1,-1.9589041E-1,1.798072E-1],"split_indices":[6,7,4,8,0,7,6,0,5,0,6,5,0,7,8,0,2,3,3,6,1,2,2,4,0,6,4,4,7,0,7,0,3,0,7,3,0,4,0,7,7,4,0,0,0,0,2,0,6,5,7,0,5,7,0,3,4,6,0,3,4,0,0,0,0,0,0,0,0,0,0,0,0,0,0,0,0,0,0,0,0,0,0,0,0,0,0,0,0,0,0,0,0,0,0,0,0,0,0,0,0,0,0,0,0,0,0,0,0,0,0],"split_type":[0,0,0,0,0,0,0,0,0,0,0,0,0,0,0,0,0,0,0,0,0,0,0,0,0,0,0,0,0,0,0,0,0,0,0,0,0,0,0,0,0,0,0,0,0,0,0,0,0,0,0,0,0,0,0,0,0,0,0,0,0,0,0,0,0,0,0,0,0,0,0,0,0,0,0,0,0,0,0,0,0,0,0,0,0,0,0,0,0,0,0,0,0,0,0,0,0,0,0,0,0,0,0,0,0,0,0,0,0,0,0],"sum_hessian":[4.1027727E4,2.5765852E4,1.5261876E4,2.469581E4,1.0700413E3,8.399766E3,6.86211E3,3.3305927E2,2.4362752E4,1.0240295E3,4.601169E1,4.947956E2,7.90497E3,2.135479E3,4.726631E3,3.2543616E0,3.298049E2,2.1891448E3,2.2173607E4,8.894527E1,9.350843E2,4.1827915E1,4.1837726E0,2.8126514E2,2.1353044E2,7.8469985E3,5.7971382E1,2.4958261E2,1.8858964E3,4.4730405E3,2.5359035E2,2.0660844E0,3.277388E2,2.185523E3,3.6218464E0,2.213555E4,3.805487E1,6.0808826E1,2.8136442E1,7.428005E1,8.608042E2,6.1756635E0,3.5652252E1,2.3815715E0,1.802201E0,1.3467798E2,1.4658717E2,1.8882439E2,2.4706055E1,1.1362399E2,7.7333745E3,2.25361E1,3.5435284E1,1.925103E2,5.7072308E1,6.654385E2,1.2204579E3,3.9683533E3,5.0468753E2,1.8897293E1,2.3469305E2,1.8124745E2,1.4649136E2,2.0150778E0,1.6067686E0,1.3946016E4,8.189536E3,2.694733E1,3.3861496E1,2.2236021E1,5.900423E0,2.9944334E0,7.128562E1,3.668797E2,4.9392453E2,1.702349E0,4.4733143E0,3.386606E1,1.7861935E0,7.888786E1,5.5790115E1,3.4838467E1,1.1174871E2,1.5760738E2,3.1217E1,2.266763E1,2.0384264E0,1.4852774E1,9.877122E1,1.6370414E3,6.0963335E3,1.5734802E1,6.801297E0,2.0282904E1,1.5152378E1,2.3951704E1,1.685586E2,4.549972E1,1.1572588E1,2.680609E2,3.9737756E2,1.2185946E3,1.863307E0,2.0964362E2,3.7587095E3,1.0552117E2,3.9916635E2,3.6343765E0,1.5262917E1,1.8521304E0,2.3284093E2],"tree_param":{"num_deleted":"0","num_feature":"9","num_nodes":"111","size_leaf_vector":"0"}},{"base_weights":[9.061692E-3,-1.8963413E-1,2.9301363E-1,-2.5464323E-1,7.6602794E-2,4.241429E-1,-1.5498E-1,-3.950357E-1,-2.3553419E-1,-2.7479511E-1,1.1582914E-1,4.457194E-1,-2.9232475E-1,2.051909E-1,-2.3392633E-1,-3.8322282E-1,-4.5747265E-1,-1.943606E-1,-3.0111274E-1,-1.09646656E-1,-3.2172555E-1,1.6500251E-1,6.883028E-2,4.580033E-1,-9.305293E-2,-3.0509886E-1,4.040432E-1,3.504481E-1,1.4188038E-1,-1.21157296E-1,-3.0506226E-1,-3.935671E-1,-3.089572E-1,-4.6430996E-1,1.983021E-1,-2.2844216E-1,-1.1184004E-1,-3.0409265E-1,1.5544215E-1,-3.1130484E-1,1.986434E-2,-3.8802114E-1,-2.6488528E-1,1.159549E-1,3.0361325E-1,-2.7181095E-2,1.0146227E-1,4.6232086E-1,-7.8040725E-1,-3.0291334E-1,-5.8025094E-3,-1.8649365E-1,-3.541558E-1,1.9832817E-1,5.2997756E-1,9.206209E-1,2.2904757E-1,-3.7109625E-2,2.2339796E-1,-5.7294317E-2,-3.0463102E-1,-3.07823E-1,4.3905255E-1,-3.4355524E-1,-4.2586863E-1,-4.2637616E-1,-2.1192667E-1,-4.7507733E-1,-9.134962E-2,-2.1864095E-1,-4.2646036E-1,-8.360438E-2,-4.049717E-1,-3.5561597E-1,-2.860004E-1,-2.6034668E-1,4.306984E-1,-2.4524631E-3,-4.209605E-1,-3.637771E-1,1.080005E-1,-3.0040085E-1,-5.1585317E-1,-4.52272E-1,-2.3056838E-1,3.4194827E-1,8.7240316E-2,3.89573E-1,-2.0896727E-2,1.6670197E-1,-1.034265E-1,-6.3928664E-3,1.5618521E-1,4.8966777E-1,3.4334663E-1,-6.444034E-1,-9.026497E-1,-1.2089767E-1,-4.5987386E-1,-9.9965654E-2,3.3231974E-1,-2.2759916E-1,2.984607E-1,-3.1265053E-1,-4.9355295E-1,-3.435496E-3,3.1664425E-1,1.3596855E-1,6.4034975E-1,1.541649E-1,9.861912E-1,6.030083E-1,4.296323E-2,-4.9573058E-1,4.14066E-2,4.734914E-1,1.3699849E-1,8.1797767E-1,-7.2512515E-2,-9.888019E-2,-3.4292424E-1,-8.812903E-2,-3.115482E-1,6.261712E-1,7.574184E-2],"categories":[],"categories_nodes":[],"categories_segments":[],"categories_sizes":[],"default_left":[1,1,1,1,1,1,1,1,1,1,1,1,1,1,1,1,1,1,1,1,1,1,1,1,1,1,1,1,1,1,1,1,1,1,0,1,1,1,1,1,1,1,1,1,1,1,1,1,1,1,1,1,1,1,1,1,1,1,1,1,1,1,1,0,0,0,0,0,0,0,0,0,0,0,0,0,0,0,0,0,0,0,0,0,0,0,0,0,0,0,0,0,0,0,0,0,0,0,0,0,0,0,0,0,0,0,0,0,0,0,0,0,0,0,0,0,0,0,0,0,0,0,0,0,0],"id":8,"left_children":[1,3,5,7,9,11,13,15,17,19,21,23,25,27,29,31,33,35,37,39,41,43,45,47,49,51,53,55,57,59,61,63,65,67,-1,69,71,73,75,77,79,81,83,85,87,89,91,93,95,97,99,101,103,105,107,109,111,113,115,117,119,121,123,-1,-1,-1,-1,-1,-1,-1,-1,-1,-1,-1,-1,-1,-1,-1,-1,-1,-1,-1,-1,-1,-1,-1,-1,-1,-1,-1,-1,-1,-1,-1,-1,-1,-1,-1,-1,-1,-1,-1,-1,-1,-1,-1,-1,-1,-1,-1,-1,-1,-1,-1,-1,-1,-1,-1,-1,-1,-1,-1,-1,-1,-1],"loss_changes":[2.3625376E3,4.2640527E2,1.0127516E3,5.3027832E1,6.668638E1,2.0628418E2,1.11055984E2,1.5732422E0,4.700714E1,3.7305946E0,1.0043606E1,8.5723145E1,3.5966606E0,6.409918E0,2.565422E1,1.4146729E0,1.760109E0,3.009793E1,9.191467E0,2.8539271E0,1.3210564E0,1.4414837E1,6.9777603E0,6.804028E1,5.2976656E0,2.1682396E0,8.825457E-2,1.450083E1,7.170618E0,1.4517208E1,4.1680603E0,2.683319E0,2.748106E0,1.4363327E0,0E0,1.4616608E1,2.5894115E1,6.123291E0,5.176064E0,1.4451647E0,2.316112E0,1.7745419E0,1.2241611E0,1.0168495E1,1.548719E1,8.377005E0,9.808964E0,4.087378E1,1.5563583E-1,2.3720117E0,6.574426E0,2.3497949E0,1.410923E0,1.0689297E-1,8.826125E-2,1.7063675E0,1.2260545E1,5.5825953E0,7.2260056E0,1.2332417E1,2.4877834E0,1.5737305E0,4.7390664E-1,0E0,0E0,0E0,0E0,0E0,0E0,0E0,0E0,0E0,0E0,0E0,0E0,0E0,0E0,0E0,0E0,0E0,0E0,0E0,0E0,0E0,0E0,0E0,0E0,0E0,0E0,0E0,0E0,0E0,0E0,0E0,0E0,0E0,0E0,0E0,0E0,0E0,0E0,0E0,0E0,0E0,0E0,0E0,0E0,0E0,0E0,0E0,0E0,0E0,0E0,0E0,0E0,0E0,0E0,0E0,0E0,0E0,0E0,0E0,0E0,0E0,0E0],"parents":[2147483647,0,0,1,1,2,2,3,3,4,4,5,5,6,6,7,7,8,8,9,9,10,10,11,11,12,12,13,13,14,14,15,15,16,16,17,17,18,18,19,19,20,20,21,21,22,22,23,23,24,24,25,25,26,26,27,27,28,28,29,29,30,30,31,31,32,32,33,33,35,35,36,36,37,37,38,38,39,39,40,40,41,41,42,42,43,43,44,44,45,45,46,46,47,47,48,48,49,49,50,50,51,51,52,52,53,53,54,54,55,55,56,56,57,57,58,58,59,59,60,60,61,61,62,62],"right_children":[2,4,6,8,10,12,14,16,18,20,22,24,26,28,30,32,34,36,38,40,42,44,46,48,50,52,54,56,58,60,62,64,66,68,-1,70,72,74,76,78,80,82,84,86,88,90,92,94,96,98,100,102,104,106,108,110,112,114,116,118,120,122,124,-1,-1,-1,-1,-1,-1,-1,-1,-1,-1,-1,-1,-1,-1,-1,-1,-1,-1,-1,-1,-1,-1,-1,-1,-1,-1,-1,-1,-1,-1,-1,-1,-1,-1,-1,-1,-1,-1,-1,-1,-1,-1,-1,-1,-1,-1,-1,-1,-1,-1,-1,-1,-1,-1,-1,-1,-1,-1,-1,-1,-1,-1],"split_conditions":[1.5E0,1.4925E1,1.48553E3,2.5E0,2.502E3,2.05E1,1.45E1,1.253595E3,1.55E1,1.15E1,3.75E1,4.7529773E2,3.3476453E2,4.5E0,2.05E1,1.1157051E3,1.4973201E3,5.5E0,5.632E2,3.5E0,2.05E1,2.95E1,1.95E1,3.55E1,7.715E0,5.5E0,1.15E1,6.5E0,1.05E1,7.5E0,6.3807983E2,3.5362923E1,4.7724632E1,3.6901257E2,5.9490632E-2,1.45E1,5.5E0,9.5E0,2.25E1,1.574E1,1.27335E2,1.85E1,1.55E1,1.65E1,3.35E1,1.8875E1,7.1753716E1,1.241815E3,4.65E1,7.803079E2,1.55E1,9.5E0,8.5E0,5.55E1,4.55E1,1.1E1,1.25E1,1.601465E3,1.0805E1,1.2619828E1,1.55E1,1.0622984E1,1.25E1,-1.0306658E-1,-1.2776059E-1,-1.2791285E-1,-6.3578E-2,-1.425232E-1,-2.7404886E-2,-6.559229E-2,-1.279381E-1,-2.5081316E-2,-1.21491514E-1,-1.066848E-1,-8.5800126E-2,-7.8104004E-2,1.2920952E-1,-7.3573895E-4,-1.2628815E-1,-1.0913313E-1,3.2400154E-2,-9.0120256E-2,-1.5475595E-1,-1.356816E-1,-6.917052E-2,1.0258449E-1,2.6172096E-2,1.1687191E-1,-6.2690186E-3,5.0010595E-2,-3.1027952E-2,-1.91786E-3,4.6855565E-2,1.4690034E-1,1.0300399E-1,-1.9332103E-1,-2.7079493E-1,-3.6269303E-2,-1.3796216E-1,-2.9989697E-2,9.969593E-2,-6.827975E-2,8.953821E-2,-9.3795165E-2,-1.480659E-1,-1.0306488E-3,9.499328E-2,4.0790565E-2,1.9210494E-1,4.624947E-2,2.9585737E-1,1.8090248E-1,1.2888969E-2,-1.4871918E-1,1.2421981E-2,1.4204742E-1,4.109955E-2,2.453933E-1,-2.1753754E-2,-2.9664056E-2,-1.02877274E-1,-2.643871E-2,-9.3464464E-2,1.8785135E-1,2.2722553E-2],"split_indices":[8,4,6,5,6,7,7,6,3,3,3,0,0,1,7,6,6,5,0,5,7,7,7,3,4,1,2,7,2,5,0,0,0,0,0,2,1,7,3,4,6,2,2,7,7,4,0,6,3,0,7,5,5,3,3,2,2,6,4,0,7,0,2,0,0,0,0,0,0,0,0,0,0,0,0,0,0,0,0,0,0,0,0,0,0,0,0,0,0,0,0,0,0,0,0,0,0,0,0,0,0,0,0,0,0,0,0,0,0,0,0,0,0,0,0,0,0,0,0,0,0,0,0,0,0],"split_type":[0,0,0,0,0,0,0,0,0,0,0,0,0,0,0,0,0,0,0,0,0,0,0,0,0,0,0,0,0,0,0,0,0,0,0,0,0,0,0,0,0,0,0,0,0,0,0,0,0,0,0,0,0,0,0,0,0,0,0,0,0,0,0,0,0,0,0,0,0,0,0,0,0,0,0,0,0,0,0,0,0,0,0,0,0,0,0,0,0,0,0,0,0,0,0,0,0,0,0,0,0,0,0,0,0,0,0,0,0,0,0,0,0,0,0,0,0,0,0,0,0,0,0,0,0],"sum_hessian":[4.1872086E4,2.4634436E4,1.7237652E4,1.9799807E4,4.8346274E3,1.3334617E4,3.9030347E3,2.3697546E3,1.7430053E4,4.8488843E2,4.349739E3,1.294515E4,3.89467E2,7.014163E2,3.2016182E3,1.9987368E3,3.7101773E2,1.0709831E4,6.7202217E3,1.08038124E2,3.768503E2,2.1244673E3,2.2252717E3,1.26567295E4,2.8842133E2,3.830031E2,6.463897E0,2.1153752E2,4.898788E2,1.2394576E3,1.9621606E3,1.7506003E3,2.4813644E2,3.6747827E2,3.5394673E0,7.578209E3,3.1316216E3,6.6769756E3,4.3246407E1,4.170174E1,6.633638E1,1.7126688E2,2.0558342E2,1.5705591E3,5.539081E2,5.6451013E2,1.6607617E3,1.2613381E4,4.3348026E1,8.397276E1,2.0444855E2,1.13469345E2,2.6953378E2,3.4322066E0,3.0316906E0,3.5978176E1,1.7555934E2,1.534625E2,3.3641632E2,9.203999E2,3.190577E2,1.955492E3,6.6686845E0,6.915394E2,1.0590609E3,1.1073686E2,1.3739958E2,3.5690076E2,1.0577527E1,7.2228096E3,3.5539978E2,2.8576465E3,2.7397516E2,1.7304158E3,4.9465596E3,1.7247433E1,2.5998972E1,1.1194383E1,3.0507359E1,1.1808516E1,5.4527866E1,1.0360356E2,6.766332E1,2.9936491E1,1.7564693E2,1.758277E2,1.3947314E3,4.3775125E2,1.16156815E2,1.5900157E2,4.0550858E2,5.593011E2,1.1014606E3,1.0253451E4,2.3599302E3,2.3487709E1,1.9860315E1,3.970269E1,4.4270077E1,1.604652E2,4.3983356E1,1.0509224E2,8.377108E0,2.1019228E2,5.9341507E1,1.6276127E0,1.804594E0,1.1518176E0,1.879873E0,3.099462E0,3.2878716E1,5.7588085E1,1.1797126E2,2.1655699E1,1.318068E2,8.5229416E1,2.511869E2,1.4827863E1,9.05572E2,5.0625763E1,2.6843195E2,3.30162E1,1.9224757E3,3.924108E0,2.7445765E0],"tree_param":{"num_deleted":"0","num_feature":"9","num_nodes":"125","size_leaf_vector":"0"}},{"base_weights":[-1.0285301E-2,2.1768807E-1,-4.0165907E-1,3.2004943E-1,-1.8329734E-1,-1.5466492E-1,-4.9570835E-1,5.615518E-1,2.7362108E-1,-2.1371792E-1,3.4672633E-1,-2.1284825E-1,2.1744484E-1,-5.0390154E-1,-3.5809506E-2,5.5460316E-1,6.09047E-1,3.1149298E-1,6.854947E-2,-1.9267008E-1,-3.348451E-1,2.4480644E-1,5.541471E-1,-9.050059E-2,-2.3679295E-1,4.7335643E-2,3.4218213E-1,-3.688309E-1,-5.286129E-1,1.0171975E0,-1.1222709E-1,5.6551313E-1,5.0108683E-1,6.481596E-1,5.634729E-1,3.5575306E-1,1.9221309E-1,-1.7980555E-1,3.7583038E-1,-2.1836253E-1,-9.398484E-2,-3.5001263E-1,3.7941888E-1,3.1532055E-1,-5.710027E-1,-2.4822336E-1,5.8367693E-1,-1.721587E-1,1.0527387E-1,-1.9854921E-1,-3.26864E-1,-2.821311E-1,2.328343E-1,4.3537003E-1,9.002891E-2,-1.9809292E-1,-4.6369353E-1,-5.7258344E-1,-4.7335184E-1,1.1355321E0,4.670481E-1,-5.959894E-1,4.1263733E-2,5.575055E-1,6.275306E-1,8.046444E-2,5.110471E-1,4.497403E-1,6.7003703E-1,2.2974709E-1,5.785445E-1,3.6009246E-1,-6.06989E-2,1.800049E-1,8.0589426E-1,-2.68705E-1,3.73477E-1,-4.6350887E-1,4.0939873E-1,-2.2086152E-1,7.9818904E-1,4.4289467E-1,-1.286606E-1,-3.094912E-1,-5.777943E-1,8.72372E-1,-5.3998053E-1,7.2281027E-1,2.2512217E-1,2.5060257E-1,-6.825224E-1,2.5603268E-1,-5.9428716E-1,6.6876674E-1,3.613346E-1,-3.2861033E-1,-9.525139E-3,2.737206E-1,-5.288975E-1,1.214223E-1,-2.0891279E-1,-2.8267148E-1,-5.017348E-1,3.3211264E-1,-4.4179004E-1,5.1302505E-1,8.945052E-2,1.2884128E0,3.93426E-1,-7.393323E-2,8.008261E-1,-1.1541045E-1,-5.0421894E-1,-4.721657E-1,7.65809E-1,-5.248928E-1,-5.905634E-1,-5.4905254E-1,-4.3743733E-1,7.75992E-1,-2.3516793E-2],"categories":[],"categories_nodes":[],"categories_segments":[],"categories_sizes":[],"default_left":[1,1,1,1,1,1,1,1,1,1,1,1,1,1,1,1,1,1,1,1,1,1,1,1,1,1,1,1,1,1,1,1,1,1,1,1,1,1,1,1,1,1,1,1,1,1,1,1,1,1,1,1,1,1,1,1,1,1,1,0,0,0,1,0,0,0,0,0,0,0,0,0,0,0,0,0,0,0,0,0,0,0,0,0,0,0,0,0,0,0,0,0,0,0,0,0,0,0,0,0,0,0,0,0,0,0,0,0,0,0,0,0,0,0,0,0,0,0,0,0,0],"id":9,"left_children":[1,3,5,7,9,11,13,15,17,19,21,23,25,27,29,31,33,35,37,39,41,43,45,47,49,51,53,55,57,59,61,63,65,67,69,71,73,75,77,79,81,83,85,87,89,91,93,95,97,99,101,103,105,107,109,111,113,115,117,-1,-1,-1,119,-1,-1,-1,-1,-1,-1,-1,-1,-1,-1,-1,-1,-1,-1,-1,-1,-1,-1,-1,-1,-1,-1,-1,-1,-1,-1,-1,-1,-1,-1,-1,-1,-1,-1,-1,-1,-1,-1,-1,-1,-1,-1,-1,-1,-1,-1,-1,-1,-1,-1,-1,-1,-1,-1,-1,-1,-1,-1],"loss_changes":[3.4165078E3,9.932418E2,3.2733838E2,2.1598828E2,7.9425095E1,8.423118E1,3.8443848E1,6.876831E-1,1.2556506E2,1.18029785E1,5.519638E0,9.830963E0,1.1150663E1,3.327832E1,1.4577577E1,1.3059082E0,3.2356262E-1,7.199097E1,1.9253671E2,1.0040543E1,7.5837784E0,1.060178E1,2.2144718E0,8.843939E0,9.62146E0,1.3743537E1,7.091526E0,2.5082642E1,2.0322754E1,2.6784706E-1,1.2534748E1,7.6916504E-1,1.9267807E0,5.7244873E-1,8.032036E-1,1.8010498E1,2.7546616E1,6.8736755E1,3.1960495E1,8.172577E0,1.5349583E1,6.0420685E0,7.1701E0,5.9899216E0,1.5242467E0,8.156524E-1,1.3578644E0,9.919141E0,1.7569492E1,6.5793457E0,6.3230743E0,8.09716E0,5.7285686E0,7.4118233E0,9.749678E0,1.4037264E1,1.0761673E1,3.7330322E0,9.98584E0,0E0,0E0,0E0,6.1502705E0,0E0,0E0,0E0,0E0,0E0,0E0,0E0,0E0,0E0,0E0,0E0,0E0,0E0,0E0,0E0,0E0,0E0,0E0,0E0,0E0,0E0,0E0,0E0,0E0,0E0,0E0,0E0,0E0,0E0,0E0,0E0,0E0,0E0,0E0,0E0,0E0,0E0,0E0,0E0,0E0,0E0,0E0,0E0,0E0,0E0,0E0,0E0,0E0,0E0,0E0,0E0,0E0,0E0,0E0,0E0,0E0,0E0,0E0],"parents":[2147483647,0,0,1,1,2,2,3,3,4,4,5,5,6,6,7,7,8,8,9,9,10,10,11,11,12,12,13,13,14,14,15,15,16,16,17,17,18,18,19,19,20,20,21,21,22,22,23,23,24,24,25,25,26,26,27,27,28,28,29,29,30,30,31,31,32,32,33,33,34,34,35,35,36,36,37,37,38,38,39,39,40,40,41,41,42,42,43,43,44,44,45,45,46,46,47,47,48,48,49,49,50,50,51,51,52,52,53,53,54,54,55,55,56,56,57,57,58,58,62,62],"right_children":[2,4,6,8,10,12,14,16,18,20,22,24,26,28,30,32,34,36,38,40,42,44,46,48,50,52,54,56,58,60,62,64,66,68,70,72,74,76,78,80,82,84,86,88,90,92,94,96,98,100,102,104,106,108,110,112,114,116,118,-1,-1,-1,120,-1,-1,-1,-1,-1,-1,-1,-1,-1,-1,-1,-1,-1,-1,-1,-1,-1,-1,-1,-1,-1,-1,-1,-1,-1,-1,-1,-1,-1,-1,-1,-1,-1,-1,-1,-1,-1,-1,-1,-1,-1,-1,-1,-1,-1,-1,-1,-1,-1,-1,-1,-1,-1,-1,-1,-1,-1,-1],"split_conditions":[1.25E1,1.5E0,1.258735E3,2.5E0,3.8702692E2,2.4434164E2,4.535545E2,1.0764999E1,1.65E1,1.37833E3,7.4051746E2,5.587363E0,1.35E1,1.65E1,4.5873267E2,8.71E0,1.1535E1,5.5E0,1.15E1,1.4724216E2,2.8632037E2,1.40964E3,6.5E0,9.3131E2,6.5E0,3.0307303E2,7.4541504E2,1.4938401E3,1.5255E1,8E0,5.044997E2,7.685E0,8.805E0,3.8689036E0,1.1585E1,1.47327E3,5.920564E2,5.5E0,2.5E0,1.37614E3,2.09E0,1.6647357E2,3.5E0,9.5E0,6E0,4.5E0,1.01638635E3,1.0135E1,1.85E1,4.62E1,1.04345E3,2.6121594E2,7.64E0,2.519838E2,1.2179299E3,2.75E1,4.94046E3,2.05E1,2.613405E3,3.4065965E-1,1.4011444E-1,-1.7879683E-1,5.229009E2,1.6725165E-1,1.8825918E-1,2.4139332E-2,1.5331414E-1,1.3492209E-1,2.0101112E-1,6.892413E-2,1.7356336E-1,1.0802774E-1,-1.8209672E-2,5.400147E-2,2.4176829E-1,-8.0611505E-2,1.12043105E-1,-1.3905267E-1,1.22819625E-1,-6.625846E-2,2.3945673E-1,1.3286841E-1,-3.8598184E-2,-9.284736E-2,-1.733383E-1,2.617116E-1,-1.6199416E-1,2.1684308E-1,6.753665E-2,7.518078E-2,-2.0475674E-1,7.680981E-2,-1.7828615E-1,2.0063002E-1,1.0840038E-1,-9.85831E-2,-2.8575417E-3,8.211618E-2,-1.5866926E-1,3.642669E-2,-6.267384E-2,-8.480145E-2,-1.5052044E-1,9.96338E-2,-1.3253702E-1,1.5390752E-1,2.6835158E-2,3.8652387E-1,1.1802781E-1,-2.2179969E-2,2.4024783E-1,-3.4623135E-2,-1.5126568E-1,-1.4164972E-1,2.297427E-1,-1.5746784E-1,-1.7716902E-1,-1.6471577E-1,-1.312312E-1,2.3279761E-1,-7.055038E-3],"split_indices":[7,8,6,5,0,0,0,4,3,6,0,0,2,7,0,4,4,5,2,0,0,6,3,6,1,0,6,6,4,1,0,4,4,0,4,6,0,1,1,6,4,0,5,2,7,3,0,4,7,6,6,0,4,0,6,3,6,7,6,0,0,0,0,0,0,0,0,0,0,0,0,0,0,0,0,0,0,0,0,0,0,0,0,0,0,0,0,0,0,0,0,0,0,0,0,0,0,0,0,0,0,0,0,0,0,0,0,0,0,0,0,0,0,0,0,0,0,0,0,0,0],"split_type":[0,0,0,0,0,0,0,0,0,0,0,0,0,0,0,0,0,0,0,0,0,0,0,0,0,0,0,0,0,0,0,0,0,0,0,0,0,0,0,0,0,0,0,0,0,0,0,0,0,0,0,0,0,0,0,0,0,0,0,0,0,0,0,0,0,0,0,0,0,0,0,0,0,0,0,0,0,0,0,0,0,0,0,0,0,0,0,0,0,0,0,0,0,0,0,0,0,0,0,0,0,0,0,0,0,0,0,0,0,0,0,0,0,0,0,0,0,0,0,0,0],"sum_hessian":[3.8289895E4,2.4196178E4,1.4093716E4,1.9275768E4,4.920411E3,3.8873428E3,1.0206373E4,3.1063955E3,1.6169372E4,4.6538984E3,2.6651257E2,3.3620745E3,5.252682E2,1.0027633E4,1.7874069E2,2.7209875E3,3.8540787E2,1.3648328E4,2.5210437E3,3.9671343E3,6.8676416E2,1.8016539E2,8.63472E1,5.510768E2,2.8109978E3,2.2280275E2,3.0246545E2,1.5533026E3,8.47433E3,1.1260736E1,1.6747997E2,2.2522678E3,4.6871964E2,2.0029134E2,1.8511655E2,9.953132E3,3.6951968E3,1.3944312E3,1.1266124E3,3.146689E3,8.204451E2,6.729832E2,1.3780955E1,1.6639647E2,1.3768921E1,2.8021624E0,8.354504E1,3.8896072E2,1.6211603E2,1.9754398E3,8.355579E2,8.006941E1,1.4273334E2,2.2031673E2,8.214872E1,5.558849E2,9.9741766E2,4.714056E3,3.7602737E3,8.391681E0,2.8690555E0,3.964537E1,1.2783459E2,2.00356E3,2.4870789E2,1.1052503E1,4.576671E2,2.203151E1,1.7825983E2,8.700791E0,1.7641576E2,9.850624E3,1.02507645E2,3.6243887E3,7.0808044E1,1.2018384E3,1.9259276E2,4.2832237E1,1.0837802E3,3.1397532E3,6.9357567E0,4.9061462E1,7.7138367E2,5.73346E2,9.9637184E1,9.004289E0,4.7766666E0,2.8885725E1,1.3751074E2,1.4965013E0,1.2272419E1,1.2463053E0,1.5558571E0,5.8969673E1,2.4575363E1,1.9772804E2,1.9123267E2,1.2854158E2,3.357445E1,6.1639103E1,1.9138007E3,6.690861E2,1.6647179E2,1.6295776E1,6.3773636E1,4.744384E1,9.528949E1,8.932532E0,2.113842E2,6.7479065E1,1.4669654E1,4.3875677E2,1.1712811E2,9.9120355E2,6.2141438E0,1.2989296E3,3.4151265E3,1.205349E3,2.5549248E3,9.468289E0,1.183663E2],"tree_param":{"num_deleted":"0","num_feature":"9","num_nodes":"121","size_leaf_vector":"0"}},{"base_weights":[-4.4593173E-3,-2.3302534E-1,3.598277E-1,-2.663732E-1,5.1592517E-1,4.2592275E-1,2.2066565E-1,-5.854009E-1,-2.3891549E-1,5.347376E-1,4.1431192E-1,3.5351045E-2,4.5246705E-1,4.522362E-1,1.6871893E-1,-5.870947E-1,2.076759E-1,4.9079776E-1,-2.501253E-1,3.8848817E-1,5.5070573E-1,6.268902E-2,4.7306857E-1,-5.7979554E-1,6.2127702E-2,4.8685303E-1,3.7837708E-1,1.6318296E-1,4.9847907E-1,-9.565994E-3,1.8650617E-1,5.9843665E-1,-3.7324947E-1,5.7433877E-2,4.9518704E-1,-2.5451067E-1,7.017098E-1,4.653574E-1,2.1785308E-1,-3.289347E-1,5.54063E-1,-1.7201532E-1,3.9650145E-1,5.44849E-1,3.1254414E-1,6.110878E-1,4.283236E-2,4.9059027E-1,1.2586202E-2,4.5379186E-1,1.8046722E-1,9.350017E-1,1.0749238E-1,4.0717685E-1,5.342977E-1,1.2466946E-1,-4.029908E-1,3.259388E-1,1.5545052E-1,7.484543E-1,1.6316804E-1,4.5510605E-1,5.409992E-1,-1.9576894E-1,-3.319889E-1,-4.25188E-1,1.0093219E0,4.9390194E-1,2.1185102E-1,9.4380215E-2,5.225775E-1,5.0130427E-1,5.8323175E-1,-4.102817E-1,4.7626892E-1,-6.6727325E-3,5.2074504E-1,3.7808737E-1,6.45027E-1,3.832502E-1,-3.060239E-1,-1.9952303E-1,1.0166066E0,-5.245234E-1,8.8108115E-2,1.6794644E-1,4.9518043E-1,3.120541E-1,-3.102727E-1,3.5813022E-1,5.0708395E-1,2.3717426E-1,-1.6523743E-1,-2.710437E-1,2.9087257E-1,1.5934615E-1,5.676314E-1,1.8804501E-1,5.4766273E-1,-7.7095944E-1,1.7183398E-1,-6.862751E-1,3.7324265E-2,5.1686686E-2,4.477175E-1,1.4720382E-1,5.2318984E-1],"categories":[],"categories_nodes":[],"categories_segments":[],"categories_sizes":[],"default_left":[1,1,1,1,1,1,1,1,1,1,1,1,1,1,1,0,1,1,1,1,1,1,1,0,1,1,1,1,1,1,1,1,0,0,1,1,1,1,1,0,1,1,1,1,1,1,1,1,1,1,1,0,1,1,1,1,1,1,1,0,0,0,0,0,0,0,0,0,0,0,0,0,0,0,0,0,0,0,0,0,0,0,0,0,0,0,0,0,0,0,0,0,0,0,0,0,0,0,0,0,0,0,0,0,0,0,0],"id":10,"left_children":[1,3,5,7,9,11,13,15,17,19,21,23,25,27,29,-1,31,33,35,37,39,41,43,-1,45,47,49,51,53,55,57,59,-1,-1,61,63,65,67,69,-1,71,73,75,77,79,81,83,85,87,89,91,-1,93,95,97,99,101,103,105,-1,-1,-1,-1,-1,-1,-1,-1,-1,-1,-1,-1,-1,-1,-1,-1,-1,-1,-1,-1,-1,-1,-1,-1,-1,-1,-1,-1,-1,-1,-1,-1,-1,-1,-1,-1,-1,-1,-1,-1,-1,-1,-1,-1,-1,-1,-1,-1],"loss_changes":[3.1960762E3,5.89224E2,1.3602417E2,1.9766821E2,1.7010803E0,1.039939E2,5.727298E1,2.5249023E0,1.702135E2,1.7599182E0,3.3081703E0,1.0569923E1,2.3748047E1,1.1586517E1,1.2355316E1,0E0,1.2564629E0,5.7061005E-1,8.566394E1,1.0344505E0,2.4255676E0,1.9707968E0,1.4229774E0,0E0,6.474864E0,1.1359741E1,4.442923E1,5.1380615E0,2.2418365E0,1.8763826E1,1.5287659E1,8.062458E-2,0E0,0E0,3.2603455E-1,9.271802E1,3.307956E1,3.210039E-1,1.033331E0,0E0,8.7272644E-1,2.5056005E0,5.208194E-1,1.3298702E0,2.0885363E0,7.0285525E0,1.5304114E1,9.339478E0,5.043527E0,1.0823669E1,1.6202852E1,0E0,8.04801E0,8.502987E0,2.381775E0,1.1325112E1,1.1299245E1,2.1496048E1,8.714218E0,0E0,0E0,0E0,0E0,0E0,0E0,0E0,0E0,0E0,0E0,0E0,0E0,0E0,0E0,0E0,0E0,0E0,0E0,0E0,0E0,0E0,0E0,0E0,0E0,0E0,0E0,0E0,0E0,0E0,0E0,0E0,0E0,0E0,0E0,0E0,0E0,0E0,0E0,0E0,0E0,0E0,0E0,0E0,0E0,0E0,0E0,0E0,0E0],"parents":[2147483647,0,0,1,1,2,2,3,3,4,4,5,5,6,6,7,7,8,8,9,9,10,10,11,11,12,12,13,13,14,14,16,16,17,17,18,18,19,19,20,20,21,21,22,22,24,24,25,25,26,26,27,27,28,28,29,29,30,30,31,31,34,34,35,35,36,36,37,37,38,38,40,40,41,41,42,42,43,43,44,44,45,45,46,46,47,47,48,48,49,49,50,50,52,52,53,53,54,54,55,55,56,56,57,57,58,58],"right_children":[2,4,6,8,10,12,14,16,18,20,22,24,26,28,30,-1,32,34,36,38,40,42,44,-1,46,48,50,52,54,56,58,60,-1,-1,62,64,66,68,70,-1,72,74,76,78,80,82,84,86,88,90,92,-1,94,96,98,100,102,104,106,-1,-1,-1,-1,-1,-1,-1,-1,-1,-1,-1,-1,-1,-1,-1,-1,-1,-1,-1,-1,-1,-1,-1,-1,-1,-1,-1,-1,-1,-1,-1,-1,-1,-1,-1,-1,-1,-1,-1,-1,-1,-1,-1,-1,-1,-1,-1,-1],"split_conditions":[1.48553E3,2.05E1,1.7825E1,2.5E0,1.8743433E2,1.45E1,2.4845698E3,2.55E1,5E-1,2.1018715E1,2.0206366E2,2.5E0,1.2075E1,1.45E1,1.65E1,-1.7612842E-1,1.1E1,1.5331748E1,7.5E0,1.395905E3,6.05E-1,8.5E0,2.925891E2,-1.7393866E-1,1.486605E3,4.5486374E2,2.699055E3,1.7880001E1,1.85E1,2.575E1,1.95E1,8.828967E1,-1.1197484E-1,1.7230164E-2,3.85E1,1.5E0,1.1417E3,2.35E1,2.25E1,-9.8680414E-2,2.55E1,1.4370001E1,1.45E1,1.35E1,1.470875E3,1.48596E3,1.4906E3,1.500005E3,5.34E0,2.05E1,2.35E1,2.805005E-1,1.8744999E1,1.95E1,3.5E0,1.8105E1,3.95633E3,3.2999102E3,1E0,2.2453628E-1,4.8950415E-2,1.3653181E-1,1.6229975E-1,-5.8730684E-2,-9.959667E-2,-1.2755641E-1,3.027966E-1,1.4817059E-1,6.355531E-2,2.8314065E-2,1.5677327E-1,1.5039128E-1,1.7496952E-1,-1.2308451E-1,1.4288068E-1,-2.00182E-3,1.5622352E-1,1.13426216E-1,1.935081E-1,1.14975065E-1,-9.180717E-2,-5.985691E-2,3.0498198E-1,-1.5735702E-1,2.6432436E-2,5.0383937E-2,1.4855413E-1,9.361623E-2,-9.308181E-2,1.0743907E-1,1.521252E-1,7.115228E-2,-4.957123E-2,-8.131311E-2,8.726177E-2,4.7803845E-2,1.7028943E-1,5.6413505E-2,1.6429883E-1,-2.3128784E-1,5.1550195E-2,-2.0588255E-1,1.119728E-2,1.5506006E-2,1.3431525E-1,4.416115E-2,1.5695696E-1],"split_indices":[6,7,4,5,0,7,6,3,8,0,0,5,4,7,7,0,7,0,5,6,4,5,0,0,6,0,6,4,3,4,7,0,0,0,3,8,6,2,2,0,3,4,2,2,6,6,6,6,4,7,2,0,4,7,1,4,6,6,8,0,0,0,0,0,0,0,0,0,0,0,0,0,0,0,0,0,0,0,0,0,0,0,0,0,0,0,0,0,0,0,0,0,0,0,0,0,0,0,0,0,0,0,0,0,0,0,0],"split_type":[0,0,0,0,0,0,0,0,0,0,0,0,0,0,0,0,0,0,0,0,0,0,0,0,0,0,0,0,0,0,0,0,0,0,0,0,0,0,0,0,0,0,0,0,0,0,0,0,0,0,0,0,0,0,0,0,0,0,0,0,0,0,0,0,0,0,0,0,0,0,0,0,0,0,0,0,0,0,0,0,0,0,0,0,0,0,0,0,0,0,0,0,0,0,0,0,0,0,0,0,0,0,0,0,0,0,0],"sum_hessian":[3.838301E4,2.358521E4,1.4797801E4,2.2580436E4,1.0047745E3,1.0031348E4,4.766453E3,1.7878066E3,2.0792629E4,8.4421606E2,1.6055841E2,6.3852026E2,9.392827E3,8.719093E2,3.894544E3,1.7842556E3,3.5510309E0,3.13935E2,2.0478695E4,8.5595024E1,7.5862103E2,2.3284105E1,1.372743E2,2.5773207E1,6.127471E2,6.411574E3,2.9812532E3,1.2087524E2,7.5103406E2,3.533464E2,3.5411975E3,2.1049726E0,1.4460583E0,3.2890084E0,3.10646E2,2.0385506E4,9.318911E1,5.7820377E1,2.7774649E1,2.5156803E0,7.5610535E2,1.3956178E1,9.327929E0,9.320321E1,4.4071095E1,1.9764656E1,5.929824E2,6.3614116E3,5.0162647E1,2.1577402E3,8.2351306E2,7.0721874E0,1.1380305E2,2.1510248E2,5.359316E2,2.639653E2,8.938111E1,6.4332434E2,2.8978733E3,1.0303384E0,1.0746343E0,1.7151863E2,1.3912735E2,1.1596731E4,8.788774E3,1.9901237E1,7.328787E1,5.1116436E1,6.70394E0,2.0697746E1,7.076904E0,2.7567175E2,4.804336E2,1.0473822E1,3.4823563E0,2.420294E0,6.907634E0,3.6769283E1,5.6433926E1,3.9891663E1,4.179434E0,6.7599177E0,1.3004739E1,4.3041336E1,5.499411E2,8.975986E1,6.271652E3,2.60414E1,2.4121244E1,7.747501E2,1.3829901E3,7.07735E2,1.1577809E2,3.6983376E1,7.681967E1,8.531774E1,1.2978474E2,2.0477747E1,5.1545386E2,1.2437506E1,2.5152779E2,5.404909E1,3.5332024E1,1.9825897E2,4.4506537E2,2.8356821E3,6.219104E1],"tree_param":{"num_deleted":"0","num_feature":"9","num_nodes":"107","size_leaf_vector":"0"}},{"base_weights":[1.4132691E-2,-1.4572744E-1,2.3542187E-1,-2.0206533E-1,6.868976E-2,3.330068E-1,-1.03435345E-1,-3.275155E-1,-1.8624666E-1,-2.2434172E-1,9.673305E-2,3.4818673E-1,-2.264896E-1,1.5410072E-1,-1.7134091E-1,-3.1496185E-1,-3.9563504E-1,-1.5002914E-1,-2.4586149E-1,-7.745641E-2,-2.780879E-1,1.3894531E-1,5.6295652E-2,3.680126E-1,1.2356434E-1,-2.9621643E-1,-1.1590926E-1,-6.4761674E-1,1.7411831E-1,-7.2782464E-2,-2.3807918E-1,-3.2587516E-1,-2.3810805E-1,-1.4564025E-1,-4.1587391E-1,-1.3832922E-1,-3.5284796E-1,-3.1458017E-1,-2.2079784E-1,-3.778684E-1,-2.7488188E-3,-3.4716538E-1,-2.181911E-1,1.1235562E-2,1.7765653E-1,-2.5994034E-2,8.39323E-2,3.7273568E-1,-4.433602E-1,1.7042296E-1,-1.5959385E-1,-1.06124185E-1,-3.3769673E-1,-2.2933449E-1,1.5575126E-1,-7.6474077E-1,-2.012952E-1,4.231551E-1,1.4793806E-1,-1.7962614E-2,-2.4301407E-1,-2.407055E-1,3.920223E-1,-2.728537E-1,-3.607777E-1,-3.6090267E-1,-1.4087087E-1,-3.0711418E-1,2.341808E-1,-4.290919E-1,-2.5666963E-2,-1.6758119E-1,-6.790361E-2,-3.7634394E-1,2.212005E-2,-3.2454765E-1,-1.4854105E-1,-2.2380084E-1,1.4864603E-1,-1.19337454E-1,-5.0154936E-1,-5.01525E-2,5.3358936E-1,-2.6037806E-1,-4.630995E-1,-4.9604586E-1,-1.7172505E-1,-2.0692752E-1,6.5074466E-2,4.8018584E-1,1.5021704E-1,2.206993E-1,-6.927154E-2,-1.3357678E-3,1.2631467E-1,3.9427742E-1,2.7459827E-1,-6.3251764E-1,7.842758E-2,-6.5267813E-1,1.789695E-1,-2.4227497E-1,3.7288487E-2,-2.5137603E-1,2.503504E-1,-3.1096473E-1,-5.778139E-1,-1.3011487E-1,-3.8741586E-1,-2.4872124E-1,3.354305E-1,-2.799166E-1,-8.463504E-1,-3.3007145E-1,2.5372222E-2,5.165677E-1,-1.0571876E-1,8.6600415E-2,2.7220044E-1,5.9050683E-2,-1.4836302E-1,-3.234334E-1,-1.2651591E-1,-2.7862927E-1,-2.1677141E-1,5.6818515E-1,5.341996E-2],"categories":[],"categories_nodes":[],"categories_segments":[],"categories_sizes":[],"default_left":[1,1,1,1,1,1,1,1,1,1,1,1,1,1,1,1,1,1,1,1,1,1,1,1,1,1,1,1,1,1,1,1,1,1,1,1,1,1,1,1,1,1,1,1,1,1,1,1,1,1,1,1,1,1,1,1,1,1,1,1,1,1,1,0,0,0,0,0,0,0,0,0,0,0,0,0,0,0,0,0,0,0,0,0,0,0,0,0,0,0,0,0,0,0,0,0,0,0,0,0,0,0,0,0,0,0,0,0,0,0,0,0,0,0,0,0,0,0,0,0,0,0,0,0,0,0,0],"id":11,"left_children":[1,3,5,7,9,11,13,15,17,19,21,23,25,27,29,31,33,35,37,39,41,43,45,47,49,51,53,55,57,59,61,63,65,67,69,71,73,75,77,79,81,83,85,87,89,91,93,95,97,99,101,103,105,107,109,111,113,115,117,119,121,123,125,-1,-1,-1,-1,-1,-1,-1,-1,-1,-1,-1,-1,-1,-1,-1,-1,-1,-1,-1,-1,-1,-1,-1,-1,-1,-1,-1,-1,-1,-1,-1,-1,-1,-1,-1,-1,-1,-1,-1,-1,-1,-1,-1,-1,-1,-1,-1,-1,-1,-1,-1,-1,-1,-1,-1,-1,-1,-1,-1,-1,-1,-1,-1,-1],"loss_changes":[1.4142766E3,2.8040244E2,5.545042E2,3.6416992E1,3.9716557E1,1.1065039E2,6.560563E1,1.6344299E0,3.521222E1,3.3115711E0,7.5186234E0,5.640271E1,2.6218948E0,1.2678282E1,1.9504745E1,1.383316E0,1.5392227E0,2.4056824E1,1.0554626E1,2.5684347E0,1.2015743E0,1.0659885E1,5.1274962E0,4.4798096E1,1.3687594E1,1.6250305E0,4.1913157E0,8.541975E-1,4.923052E0,1.1191755E1,3.0221405E0,2.719101E0,2.5795498E0,1.6186664E0,1.4948921E0,1.9777939E1,4.883911E0,2.676178E0,5.0514984E0,6.689875E-1,2.383469E0,1.3049393E0,2.0843196E0,5.9182296E0,1.3665596E1,6.072571E0,6.097866E0,2.4372559E1,6.7475863E0,6.3343506E0,2.3970795E0,2.092032E0,9.272194E-1,1.4481959E0,3.0136404E0,3.533888E-1,1.6500792E-1,3.621746E0,5.2621393E0,9.133259E0,2.6962795E0,1.53936E0,4.303807E-1,0E0,0E0,0E0,0E0,0E0,0E0,0E0,0E0,0E0,0E0,0E0,0E0,0E0,0E0,0E0,0E0,0E0,0E0,0E0,0E0,0E0,0E0,0E0,0E0,0E0,0E0,0E0,0E0,0E0,0E0,0E0,0E0,0E0,0E0,0E0,0E0,0E0,0E0,0E0,0E0,0E0,0E0,0E0,0E0,0E0,0E0,0E0,0E0,0E0,0E0,0E0,0E0,0E0,0E0,0E0,0E0,0E0,0E0,0E0,0E0,0E0,0E0,0E0,0E0],"parents":[2147483647,0,0,1,1,2,2,3,3,4,4,5,5,6,6,7,7,8,8,9,9,10,10,11,11,12,12,13,13,14,14,15,15,16,16,17,17,18,18,19,19,20,20,21,21,22,22,23,23,24,24,25,25,26,26,27,27,28,28,29,29,30,30,31,31,32,32,33,33,34,34,35,35,36,36,37,37,38,38,39,39,40,40,41,41,42,42,43,43,44,44,45,45,46,46,47,47,48,48,49,49,50,50,51,51,52,52,53,53,54,54,55,55,56,56,57,57,58,58,59,59,60,60,61,61,62,62],"right_children":[2,4,6,8,10,12,14,16,18,20,22,24,26,28,30,32,34,36,38,40,42,44,46,48,50,52,54,56,58,60,62,64,66,68,70,72,74,76,78,80,82,84,86,88,90,92,94,96,98,100,102,104,106,108,110,112,114,116,118,120,122,124,126,-1,-1,-1,-1,-1,-1,-1,-1,-1,-1,-1,-1,-1,-1,-1,-1,-1,-1,-1,-1,-1,-1,-1,-1,-1,-1,-1,-1,-1,-1,-1,-1,-1,-1,-1,-1,-1,-1,-1,-1,-1,-1,-1,-1,-1,-1,-1,-1,-1,-1,-1,-1,-1,-1,-1,-1,-1,-1,-1,-1,-1,-1,-1,-1],"split_conditions":[1.5E0,1.4925E1,1.476475E3,2.5E0,2.3820098E3,2.05E1,1.45E1,1.253595E3,1.55E1,1.25E1,3.75E1,2.6319812E2,9.7452194E1,1.47745E3,2.05E1,1.1157051E3,5E-1,5.5E0,9.5E0,2.5E0,2.05E1,1.8415E1,1.95E1,7.5E0,6.573363E2,2.2081837E1,3.05E1,2.835078E2,1.489985E3,7.5E0,6.3807983E2,3.5362923E1,4.7724632E1,6.8999996E0,3.6901257E2,5.5E0,2.85E1,2.7897443E2,4.854937E2,3.5E0,1.7995E1,1.85E1,2.539602E1,2.8429248E3,1.65E1,4.3333134E1,7.1753716E1,1.241815E3,6.82457E1,6.2E-1,9.9408374E2,3.05E1,9.5E0,1.55E1,1.16E1,7.5E0,1.1E1,1.3270491E2,1.15E1,6.5E0,2.14183E3,1.25E1,1.25E1,-8.185612E-2,-1.0823332E-1,-1.082708E-1,-4.226126E-2,-9.213426E-2,7.0254244E-2,-1.2872757E-1,-7.7000894E-3,-5.0274357E-2,-2.0371083E-2,-1.12903185E-1,6.636015E-3,-9.73643E-2,-4.4562317E-2,-6.714025E-2,4.459381E-2,-3.580124E-2,-1.5046482E-1,-1.504575E-2,1.6007681E-1,-7.811342E-2,-1.3892986E-1,-1.4881377E-1,-5.1517516E-2,-6.207826E-2,1.9522341E-2,1.4405575E-1,4.5065112E-2,6.620979E-2,-2.0781463E-2,-4.0073035E-4,3.78944E-2,1.18283235E-1,8.237948E-2,-1.897553E-1,2.3528276E-2,-1.9580345E-1,5.3690854E-2,-7.268249E-2,1.1186547E-2,-7.541281E-2,7.5105116E-2,-9.328942E-2,-1.7334418E-1,-3.9034463E-2,-1.1622476E-1,-7.461637E-2,1.0062916E-1,-8.397499E-2,-2.5390512E-1,-9.902144E-2,7.611667E-3,1.5497032E-1,-3.171563E-2,2.5980126E-2,8.166014E-2,1.7715206E-2,-4.4508908E-2,-9.703002E-2,-3.7954774E-2,-8.358879E-2,-6.5031424E-2,1.7045555E-1,1.6025988E-2],"split_indices":[8,4,6,5,6,7,7,6,3,3,3,0,0,6,7,6,2,1,7,5,7,4,7,5,0,0,7,0,6,5,0,0,0,4,0,5,7,0,0,2,4,2,0,6,7,0,0,6,0,4,0,7,1,2,4,3,2,0,7,1,6,2,2,0,0,0,0,0,0,0,0,0,0,0,0,0,0,0,0,0,0,0,0,0,0,0,0,0,0,0,0,0,0,0,0,0,0,0,0,0,0,0,0,0,0,0,0,0,0,0,0,0,0,0,0,0,0,0,0,0,0,0,0,0,0,0,0],"split_type":[0,0,0,0,0,0,0,0,0,0,0,0,0,0,0,0,0,0,0,0,0,0,0,0,0,0,0,0,0,0,0,0,0,0,0,0,0,0,0,0,0,0,0,0,0,0,0,0,0,0,0,0,0,0,0,0,0,0,0,0,0,0,0,0,0,0,0,0,0,0,0,0,0,0,0,0,0,0,0,0,0,0,0,0,0,0,0,0,0,0,0,0,0,0,0,0,0,0,0,0,0,0,0,0,0,0,0,0,0,0,0,0,0,0,0,0,0,0,0,0,0,0,0,0,0,0,0],"sum_hessian":[3.9977223E4,2.3210332E4,1.6766889E4,1.8380842E4,4.8294893E3,1.3017962E4,3.7489275E3,2.0560002E3,1.6324842E4,4.2120538E2,4.4082837E3,1.2674463E4,3.4349857E2,7.819739E2,2.9669536E3,1.7408118E3,3.1518845E2,1.0157448E4,6.167394E3,1.1348857E2,3.0771683E2,2.155617E3,2.2526667E3,1.164592E4,1.0285432E3,2.096342E2,1.3386436E2,1.8285255E1,7.636886E2,1.1987466E3,1.768207E3,1.5215148E3,2.1929698E2,2.4219566E1,2.9096887E2,9.605048E3,5.5240015E2,1.6451696E3,4.5222246E3,2.179384E1,9.169473E1,1.406791E2,1.6703772E2,5.0171875E2,1.6538981E3,5.663593E2,1.6863075E3,1.1579058E4,6.686197E1,8.8284344E2,1.456998E2,3.8188E1,1.7144621E2,9.454515E1,3.9319214E1,1.391915E1,4.3661046E0,7.120412E1,6.924845E2,9.0758246E2,2.9116415E2,1.7614829E3,6.724053E0,6.074846E2,9.1403015E2,9.571415E1,1.2358284E2,1.7128939E1,7.090629E0,2.8133905E2,9.629811E0,6.7853193E3,2.8197288E3,5.1982367E2,3.2576504E1,1.5511011E3,9.406847E1,4.4861533E3,3.6071156E1,7.688146E0,1.4105694E1,8.50814E1,6.6133385E0,8.230911E1,5.8369984E1,2.254559E1,1.4449213E2,9.874523E1,4.029735E2,1.3616254E2,1.5177356E3,8.391602E1,4.8244327E2,5.602077E2,1.1260999E3,9.492401E3,2.086657E3,4.8916607E1,1.7945358E1,8.298133E0,8.7454535E2,1.024466E2,4.3253204E1,2.734189E1,1.0846108E1,1.5633649E2,1.5109728E1,5.9207016E1,3.5338135E1,1.19760065E1,2.7343208E1,2.6436677E0,1.1275482E1,2.4933617E0,1.8727429E0,6.053531E1,1.0668808E1,4.6476627E2,2.277182E2,5.7093854E2,3.3664395E2,1.7120445E2,1.19959694E2,6.774372E2,1.0840458E3,3.9769537E0,2.7470994E0],"tree_param":{"num_deleted":"0","num_feature":"9","num_nodes":"127","size_leaf_vector":"0"}},{"base_weights":[-1.257108E-2,1.7077084E-1,-3.5633367E-1,2.4815415E-1,-1.4240591E-1,-1.15605414E-1,-4.585015E-1,4.7173175E-1,2.0933814E-1,-1.7057173E-1,2.5111067E-1,-1.5839748E-1,2.2880904E-1,-4.673941E-1,-1.8326385E-2,4.3327516E-1,4.8216054E-1,2.459856E-1,3.5507075E-2,-1.4612985E-1,-2.888265E-1,1.2467237E-1,3.949353E-1,-1.407419E-1,-2.96577E-1,1.39826E-2,2.9663482E-1,-3.2495984E-1,-4.9474835E-1,8.2902944E-1,-8.742224E-2,4.7279203E-1,2.9332042E-1,5.186527E-1,4.6550822E-1,2.836336E-1,1.4755327E-1,-1.4029306E-1,3.386068E-1,-8.201939E-2,-1.813497E-1,-3.0410647E-1,4.8322937E-1,1.1398371E0,8.936032E-2,2.4398802E-1,4.8456022E-1,-2.3844504E-1,-1.11245066E-1,-3.7384638E-1,1.0700698E-1,6.407567E-1,-1.3860306E-1,4.3201372E-1,6.937205E-2,-1.0338288E-1,-4.0826643E-1,-5.469971E-1,-4.3304613E-1,9.083876E-1,4.188664E-1,-5.7289743E-1,4.814872E-2,3.767853E-1,5.066285E-1,3.1107938E-1,-5.941924E-1,5.244214E-1,2.2950003E-1,4.1955966E-1,4.9170426E-1,2.0583604E-1,3.076839E-1,1.3552748E-1,5.905608E-1,-2.2223327E-1,3.421068E-1,4.431148E-1,2.0856178E-1,-1.7652804E-1,1.2720785E-1,-1.3077773E-1,-2.6428363E-1,-3.6554822E-1,-1.147146E-1,1.0955404E0,-1.6967984E-2,2.644012E-1,-7.103098E-2,8.692402E-2,5.226792E-1,5.0172734E-1,-4.340347E-1,-1.2286257E-1,-3.297816E-1,3.532571E-1,-1.21278025E-1,-4.0182057E-1,3.7259004E-1,8.8941497E-1,-2.0956206E-1,1.7235675E-1,7.656953E-1,-3.1365406E-2,-7.891327E-1,9.6955454E-1,3.7284577E-1,-1.0342194E-1,6.438395E-1,6.443263E-2,-3.4791622E-1,-4.1897497E-1,4.3878618E-1,-4.7905275E-1,-5.6228983E-1,-5.16559E-1,-3.9611325E-1,-2.0429255E-1,2.0711714E-1],"categories":[],"categories_nodes":[],"categories_segments":[],"categories_sizes":[],"default_left":[1,1,1,1,1,1,1,1,1,1,1,1,1,1,1,1,1,1,1,1,1,1,1,1,1,1,1,1,1,1,1,1,1,1,1,1,1,1,1,1,1,1,1,0,1,1,1,1,1,1,1,1,1,1,1,1,1,1,1,0,0,0,1,0,0,0,0,0,0,0,0,0,0,0,0,0,0,0,0,0,0,0,0,0,0,0,0,0,0,0,0,0,0,0,0,0,0,0,0,0,0,0,0,0,0,0,0,0,0,0,0,0,0,0,0,0,0,0,0],"id":12,"left_children":[1,3,5,7,9,11,13,15,17,19,21,23,25,27,29,31,33,35,37,39,41,43,45,47,49,51,53,55,57,59,61,63,65,67,69,71,73,75,77,79,81,83,85,-1,87,89,91,93,95,97,99,101,103,105,107,109,111,113,115,-1,-1,-1,117,-1,-1,-1,-1,-1,-1,-1,-1,-1,-1,-1,-1,-1,-1,-1,-1,-1,-1,-1,-1,-1,-1,-1,-1,-1,-1,-1,-1,-1,-1,-1,-1,-1,-1,-1,-1,-1,-1,-1,-1,-1,-1,-1,-1,-1,-1,-1,-1,-1,-1,-1,-1,-1,-1,-1,-1],"loss_changes":[2.250478E3,5.643924E2,3.0541113E2,1.6195776E2,5.119005E1,5.4595978E1,3.412036E1,8.986206E-1,1.0136438E2,1.2406593E1,5.563244E0,7.9929657E0,5.9629726E0,3.3137207E1,1.0242292E1,3.1741333E0,1.0733337E0,4.8659912E1,1.4774579E2,8.04895E0,8.837818E0,5.838276E0,1.8289223E0,8.394974E0,1.1647804E1,9.587482E0,9.544788E0,2.5427063E1,2.2870117E1,4.8883438E-2,1.0657372E1,1.3212128E0,2.3051243E0,9.958801E-1,1.593689E0,1.7721313E1,1.9301353E1,6.9449066E1,1.3740494E1,2.5097763E1,9.629478E0,8.371521E0,4.5158167E0,0E0,4.545045E0,2.389817E0,1.6258945E0,7.1039467E0,1.0511866E1,6.677849E0,1.5194075E1,1.0163946E0,5.604789E0,5.8353577E0,1.1717138E1,1.5548719E1,9.276642E0,3.7592773E0,9.946838E0,0E0,0E0,0E0,5.1457996E0,0E0,0E0,0E0,0E0,0E0,0E0,0E0,0E0,0E0,0E0,0E0,0E0,0E0,0E0,0E0,0E0,0E0,0E0,0E0,0E0,0E0,0E0,0E0,0E0,0E0,0E0,0E0,0E0,0E0,0E0,0E0,0E0,0E0,0E0,0E0,0E0,0E0,0E0,0E0,0E0,0E0,0E0,0E0,0E0,0E0,0E0,0E0,0E0,0E0,0E0,0E0,0E0,0E0,0E0,0E0,0E0],"parents":[2147483647,0,0,1,1,2,2,3,3,4,4,5,5,6,6,7,7,8,8,9,9,10,10,11,11,12,12,13,13,14,14,15,15,16,16,17,17,18,18,19,19,20,20,21,21,22,22,23,23,24,24,25,25,26,26,27,27,28,28,29,29,30,30,31,31,32,32,33,33,34,34,35,35,36,36,37,37,38,38,39,39,40,40,41,41,42,42,44,44,45,45,46,46,47,47,48,48,49,49,50,50,51,51,52,52,53,53,54,54,55,55,56,56,57,57,58,58,62,62],"right_children":[2,4,6,8,10,12,14,16,18,20,22,24,26,28,30,32,34,36,38,40,42,44,46,48,50,52,54,56,58,60,62,64,66,68,70,72,74,76,78,80,82,84,86,-1,88,90,92,94,96,98,100,102,104,106,108,110,112,114,116,-1,-1,-1,118,-1,-1,-1,-1,-1,-1,-1,-1,-1,-1,-1,-1,-1,-1,-1,-1,-1,-1,-1,-1,-1,-1,-1,-1,-1,-1,-1,-1,-1,-1,-1,-1,-1,-1,-1,-1,-1,-1,-1,-1,-1,-1,-1,-1,-1,-1,-1,-1,-1,-1,-1,-1,-1,-1,-1,-1],"split_conditions":[1.25E1,1.5E0,1.26461E3,2.5E0,3.475934E2,2.8341583E2,4.535545E2,3.1401E2,1.55E1,1.338575E3,5.930838E2,2.75E1,3.05185E2,1.65E1,4.5873267E2,2.4417001E2,4.5E0,5.5E0,1.25E1,8.195E0,2.8632037E2,3.4945618E2,1.75E1,1.05E1,1.8512172E2,5.2349997E0,7.4697E2,5.5E0,1.5255E1,8E0,5.044997E2,3.5E0,1.25E1,4.8919873E2,7.5E0,1.679813E1,4.7470776E2,5.5E0,1.65E1,1.65E1,1.55E1,6.5E0,2.35E1,3.4195116E-1,4.5E0,1.75E1,3.25E1,3.9941334E1,1.025E0,1.9785E1,2.0720203E2,5.5E0,1.7015E1,3.7246997E2,5.75633E2,5.5E0,3.9074905E2,1.500005E3,2.613405E3,2.7251628E-1,1.2565993E-1,-1.7186923E-1,1.61E1,1.130356E-1,1.5198857E-1,9.332382E-2,-1.7825772E-1,1.5732643E-1,6.885001E-2,1.258679E-1,1.4751129E-1,6.1750814E-2,9.2305176E-2,4.0658243E-2,1.7716825E-1,-6.6669986E-2,1.0263204E-1,1.3293444E-1,6.256854E-2,-5.2958414E-2,3.8162354E-2,-3.923332E-2,-7.928509E-2,-1.0966447E-1,-3.441438E-2,3.2866213E-1,-5.0903955E-3,7.932036E-2,-2.1309296E-2,2.6077205E-2,1.5680377E-1,1.5051821E-1,-1.3021041E-1,-3.685877E-2,-9.893448E-2,1.0597713E-1,-3.638341E-2,-1.2054618E-1,1.11777015E-1,2.668245E-1,-6.2868625E-2,5.170703E-2,2.297086E-1,-9.409622E-3,-2.3673983E-1,2.9086637E-1,1.1185373E-1,-3.1026583E-2,1.9315185E-1,1.932979E-2,-1.0437487E-1,-1.256925E-1,1.3163586E-1,-1.4371583E-1,-1.6868696E-1,-1.5496771E-1,-1.1883398E-1,-6.128777E-2,6.2135145E-2],"split_indices":[7,8,6,5,0,0,0,6,3,6,0,3,6,7,0,6,7,5,2,4,0,0,3,2,0,4,6,1,4,1,0,7,2,0,7,0,0,1,2,2,2,5,3,0,5,2,3,0,4,4,0,5,4,6,0,5,0,6,6,0,0,0,4,0,0,0,0,0,0,0,0,0,0,0,0,0,0,0,0,0,0,0,0,0,0,0,0,0,0,0,0,0,0,0,0,0,0,0,0,0,0,0,0,0,0,0,0,0,0,0,0,0,0,0,0,0,0,0,0],"split_type":[0,0,0,0,0,0,0,0,0,0,0,0,0,0,0,0,0,0,0,0,0,0,0,0,0,0,0,0,0,0,0,0,0,0,0,0,0,0,0,0,0,0,0,0,0,0,0,0,0,0,0,0,0,0,0,0,0,0,0,0,0,0,0,0,0,0,0,0,0,0,0,0,0,0,0,0,0,0,0,0,0,0,0,0,0,0,0,0,0,0,0,0,0,0,0,0,0,0,0,0,0,0,0,0,0,0,0,0,0,0,0,0,0,0,0,0,0,0,0],"sum_hessian":[3.570512E4,2.3286193E4,1.2418928E4,1.8672568E4,4.6136245E3,3.700925E3,8.718003E3,2.760592E3,1.5911978E4,4.305991E3,3.0763345E2,3.2923982E3,4.0852673E2,8.545305E3,1.726982E2,5.9799835E2,2.1625935E3,1.3141121E4,2.7708564E3,3.5702896E3,7.3570166E2,1.647054E2,1.4292804E2,2.9211707E3,3.7122763E2,9.832032E1,3.1020642E2,1.378789E3,7.1665156E3,1.2191362E1,1.6050684E2,4.6447382E2,1.3352455E2,6.681827E2,1.4944109E3,9.504137E3,3.636984E3,1.7540381E3,1.01681824E3,1.2671088E3,2.3031807E3,7.2201807E2,1.368356E1,4.4851637E0,1.6022023E2,5.463443E1,8.829362E1,6.7575745E2,2.245413E3,3.1163608E2,5.9591545E1,1.8623106E1,7.969721E1,1.9383768E2,1.16368744E2,3.773536E2,1.0014354E3,3.876269E3,3.2902466E3,9.197195E0,2.9941673E0,3.433358E1,1.2617325E2,1.24201904E2,3.402719E2,1.315419E2,1.9826378E0,6.5431506E2,1.3867578E1,5.488057E2,9.456052E2,2.2465605E3,7.2575767E3,3.5421357E3,9.484802E1,1.499819E3,2.542192E2,5.624276E2,4.5439062E2,8.729504E2,3.941584E2,1.4323378E3,8.7084296E2,5.4445734E2,1.7756073E2,5.6171594E0,8.066401E0,7.630133E1,8.39189E1,3.5780983E1,1.8853445E1,8.71193E1,1.1743143E0,2.9932263E2,3.7643478E2,4.675082E1,2.1986624E3,3.008238E2,1.0812282E1,1.6644564E1,4.2946983E1,4.422499E0,1.4200606E1,6.9318504E1,1.037871E1,1.7694721E1,1.7614296E2,9.009042E1,2.627832E1,2.2421703E2,1.5313657E2,9.8943225E2,1.2003154E1,7.1810645E2,3.1581626E3,1.00492267E3,2.285324E3,4.864309E1,7.753016E1],"tree_param":{"num_deleted":"0","num_feature":"9","num_nodes":"119","size_leaf_vector":"0"}},{"base_weights":[-5.719936E-3,-1.9141795E-1,2.896901E-1,-2.2000504E-1,4.2153558E-1,3.8747856E-1,2.135443E-1,-2.912106E-1,-9.673876E-2,4.3013844E-1,2.2490855E-1,5.9917443E-2,3.9987838E-1,3.1376427E-1,1.3330068E-1,-5.650803E-1,-2.587203E-1,1.9630158E-1,-2.7223507E-1,3.687207E-1,4.562008E-1,2.963659E-1,-3.286679E-1,2.8724888E-1,-1.1253708E-1,4.030803E-1,1.4474555E-2,2.2049485E-1,3.8350263E-1,1.5373027E-1,-3.4088705E-2,-3.0616027E-1,-1.6239594E-1,3.5353565E-1,-1.7880214E-2,-3.3564013E-1,-2.9986095E-2,4.0697297E-1,2.3480791E-1,3.9471012E-1,5.0022995E-1,4.0271944E-1,6.384948E-2,-5.848923E-1,-4.128677E-2,-5.8976956E-2,5.047151E-1,1.7402224E-1,-5.2569175E-1,4.423529E-1,3.814489E-1,2.8353217E-1,-2.732803E-1,7.664842E-2,2.8989837E-1,4.2896247E-1,2.4539359E-1,-2.2940685E-1,1.6201815E-1,-3.9072144E-1,5.8320098E-2,-4.0256676E-1,-2.789246E-1,-2.0062649E-1,-1.5344729E-2,1.3885954E-1,5.5203533E-1,-1.5943326E-1,4.0366402E-1,-3.2795668E-1,-5.9488326E-1,-3.0157882E-1,2.738807E-1,1.7815907E-1,4.3478912E-1,-1.0737606E-1,2.9310456E-1,4.3155634E-1,2.095227E-1,5.068378E-1,-2.7584264E-1,2.0362422E-1,5.304919E-1,4.0194762E-1,-6.696963E-2,3.2299775E-1,-4.3270138E-1,-5.497488E-1,2.7583027E-1,6.854318E-1,-3.6129043E-1,3.7041062E-1,-1.7095327E-1,-5.989562E-1,6.466065E-1,-9.4354205E-2,4.4398543E-1,3.264093E-1,4.0100467E-1,-3.54217E-1,4.5041475E-1,-9.159859E-2,-5.310494E-1,3.5728958E-2,5.3853184E-1,3.2123315E-1,-1.6228828E-1,4.2269173E-1,6.8140876E-1,3.6927304E-1,4.554592E-2,2.5019673E-1,-6.10406E-1,1.0368568E-1,2.1561284E-1,-1.4718969E-1,-8.222907E-1,1.0216467E-1,-7.8573376E-1],"categories":[],"categories_nodes":[],"categories_segments":[],"categories_sizes":[],"default_left":[1,1,1,1,1,1,1,1,1,1,1,1,1,1,1,0,1,1,1,1,1,1,1,1,1,1,1,1,1,1,1,1,1,1,1,1,1,1,1,1,1,1,1,0,1,1,1,1,1,1,1,1,1,1,1,1,1,1,1,1,1,0,0,0,0,0,0,0,0,0,0,0,0,0,0,0,0,0,0,0,0,0,0,0,0,0,0,0,0,0,0,0,0,0,0,0,0,0,0,0,0,0,0,0,0,0,0,0,0,0,0,0,0,0,0,0,0,0,0],"id":13,"left_children":[1,3,5,7,9,11,13,15,17,19,21,23,25,27,29,-1,31,33,35,37,39,41,43,45,47,49,51,53,55,57,59,61,63,65,67,69,71,73,75,77,79,81,83,-1,85,87,89,91,93,95,97,99,101,103,105,107,109,111,113,115,117,-1,-1,-1,-1,-1,-1,-1,-1,-1,-1,-1,-1,-1,-1,-1,-1,-1,-1,-1,-1,-1,-1,-1,-1,-1,-1,-1,-1,-1,-1,-1,-1,-1,-1,-1,-1,-1,-1,-1,-1,-1,-1,-1,-1,-1,-1,-1,-1,-1,-1,-1,-1,-1,-1,-1,-1,-1,-1],"loss_changes":[1.9654036E3,3.8557013E2,1.02888916E2,1.844635E2,1.562027E0,2.456073E1,6.2500763E1,1.183999E2,3.9592612E2,1.3339081E0,1.8063326E0,8.733643E0,7.190918E0,2.2403412E1,1.4780609E1,0E0,5.4381714E1,9.712467E1,7.394498E1,1.3632698E0,1.5748596E0,9.33481E-1,3.744473E-1,7.259533E0,1.5118593E1,4.74469E0,3.8780863E0,1.4767952E1,1.2306183E1,1.2265205E1,1.5538123E1,2.0840271E1,2.21063E1,7.079135E1,7.2969666E1,7.4058228E0,8.260165E1,1.3237381E0,1.3408637E0,1.8057442E0,2.0768967E0,5.642338E-1,6.179175E-1,0E0,6.5698195E-1,6.385676E0,9.494178E0,5.1916585E0,4.8731575E0,1.8363342E0,3.8912354E0,2.9117498E0,1.0860727E0,9.1191635E0,1.4206535E1,2.0643005E0,1.2160959E1,1.5127466E1,1.1763596E1,1.0075237E1,1.3949647E1,0E0,0E0,0E0,0E0,0E0,0E0,0E0,0E0,0E0,0E0,0E0,0E0,0E0,0E0,0E0,0E0,0E0,0E0,0E0,0E0,0E0,0E0,0E0,0E0,0E0,0E0,0E0,0E0,0E0,0E0,0E0,0E0,0E0,0E0,0E0,0E0,0E0,0E0,0E0,0E0,0E0,0E0,0E0,0E0,0E0,0E0,0E0,0E0,0E0,0E0,0E0,0E0,0E0,0E0,0E0,0E0,0E0,0E0],"parents":[2147483647,0,0,1,1,2,2,3,3,4,4,5,5,6,6,7,7,8,8,9,9,10,10,11,11,12,12,13,13,14,14,16,16,17,17,18,18,19,19,20,20,21,21,22,22,23,23,24,24,25,25,26,26,27,27,28,28,29,29,30,30,31,31,32,32,33,33,34,34,35,35,36,36,37,37,38,38,39,39,40,40,41,41,42,42,44,44,45,45,46,46,47,47,48,48,49,49,50,50,51,51,52,52,53,53,54,54,55,55,56,56,57,57,58,58,59,59,60,60],"right_children":[2,4,6,8,10,12,14,16,18,20,22,24,26,28,30,-1,32,34,36,38,40,42,44,46,48,50,52,54,56,58,60,62,64,66,68,70,72,74,76,78,80,82,84,-1,86,88,90,92,94,96,98,100,102,104,106,108,110,112,114,116,118,-1,-1,-1,-1,-1,-1,-1,-1,-1,-1,-1,-1,-1,-1,-1,-1,-1,-1,-1,-1,-1,-1,-1,-1,-1,-1,-1,-1,-1,-1,-1,-1,-1,-1,-1,-1,-1,-1,-1,-1,-1,-1,-1,-1,-1,-1,-1,-1,-1,-1,-1,-1,-1,-1,-1,-1,-1,-1],"split_conditions":[1.500005E3,2.05E1,1.2075E1,1.55E1,2.925891E2,1.45E1,2.69635E3,2.5E0,1.5E0,2.25E1,1.470875E3,1.75E1,4.5486374E2,2.05E1,2.979544E2,-1.6952409E-1,5.5E0,1.15E1,1.25458E3,1.41334E3,2.65E1,1.145E1,4.55E1,2.0685352E3,2.06326E3,5.1549997E0,5.34E0,5.5E0,1.95E1,2.5466381E1,3.2643024E2,4.5E0,1.208495E3,2.05E1,1.35E1,4.8869196E2,1.45E1,6.12E0,1.05E1,2.55E1,1.498115E3,3.55E1,8.5E0,-1.7546768E-1,2.15E1,5.1354027E1,1.8637883E2,1.15E1,3.1936987E2,1.15E1,1.95E1,2.164725E3,1E0,7.5E0,2.1425E1,2.679645E3,2.5234849E3,2.304652E1,1.95E1,3.985375E3,4.880765E3,-1.2077003E-1,-8.367739E-2,-6.018795E-2,-4.603419E-3,4.1657865E-2,1.6561061E-1,-4.7829982E-2,1.2109921E-1,-9.838701E-2,-1.7846498E-1,-9.047365E-2,8.216421E-2,5.3447723E-2,1.3043675E-1,-3.221282E-2,8.793137E-2,1.294669E-1,6.285681E-2,1.5205134E-1,-8.2752794E-2,6.108727E-2,1.5914758E-1,1.2058429E-1,-2.0090891E-2,9.689933E-2,-1.2981042E-1,-1.6492464E-1,8.274908E-2,2.0562954E-1,-1.08387135E-1,1.1112319E-1,-5.1285986E-2,-1.7968687E-1,1.9398196E-1,-2.8306263E-2,1.3319564E-1,9.7922795E-2,1.203014E-1,-1.06265105E-1,1.3512443E-1,-2.747958E-2,-1.5931481E-1,1.0718687E-2,1.6155955E-1,9.636995E-2,-4.8686486E-2,1.2680753E-1,2.0442264E-1,1.10781915E-1,1.3663777E-2,7.505902E-2,-1.831218E-1,3.1105705E-2,6.4683855E-2,-4.415691E-2,-2.4668722E-1,3.0649403E-2,-2.3572014E-1],"split_indices":[6,7,4,3,0,7,6,5,8,3,6,3,0,7,0,0,5,2,6,6,7,4,3,6,6,4,4,1,2,0,0,3,6,3,7,0,7,4,2,7,6,3,3,0,2,0,0,7,0,3,7,6,8,5,4,6,6,0,2,6,6,0,0,0,0,0,0,0,0,0,0,0,0,0,0,0,0,0,0,0,0,0,0,0,0,0,0,0,0,0,0,0,0,0,0,0,0,0,0,0,0,0,0,0,0,0,0,0,0,0,0,0,0,0,0,0,0,0,0],"split_type":[0,0,0,0,0,0,0,0,0,0,0,0,0,0,0,0,0,0,0,0,0,0,0,0,0,0,0,0,0,0,0,0,0,0,0,0,0,0,0,0,0,0,0,0,0,0,0,0,0,0,0,0,0,0,0,0,0,0,0,0,0,0,0,0,0,0,0,0,0,0,0,0,0,0,0,0,0,0,0,0,0,0,0,0,0,0,0,0,0,0,0,0,0,0,0,0,0,0,0,0,0,0,0,0,0,0,0,0,0,0,0,0,0,0,0,0,0,0,0],"sum_hessian":[3.582571E4,2.1997926E4,